{"learner":{"attributes":{"scikit_learn":"{\"_estimator_type\": \"regressor\"}"},"feature_names":["dayofmonth","dayofweek","quarter","month","year","dayofyear","hour","minute"],"feature_types":["int","int","int","int","int","int","int","int"],"gradient_booster":{"model":{"gbtree_model_param":{"num_parallel_tree":"1","num_trees":"153"},"iteration_indptr":[0,1,2,3,4,5,6,7,8,9,10,11,12,13,14,15,16,17,18,19,20,21,22,23,24,25,26,27,28,29,30,31,32,33,34,35,36,37,38,39,40,41,42,43,44,45,46,47,48,49,50,51,52,53,54,55,56,57,58,59,60,61,62,63,64,65,66,67,68,69,70,71,72,73,74,75,76,77,78,79,80,81,82,83,84,85,86,87,88,89,90,91,92,93,94,95,96,97,98,99,100,101,102,103,104,105,106,107,108,109,110,111,112,113,114,115,116,117,118,119,120,121,122,123,124,125,126,127,128,129,130,131,132,133,134,135,136,137,138,139,140,141,142,143,144,145,146,147,148,149,150,151,152,153],"tree_info":[0,0,0,0,0,0,0,0,0,0,0,0,0,0,0,0,0,0,0,0,0,0,0,0,0,0,0,0,0,0,0,0,0,0,0,0,0,0,0,0,0,0,0,0,0,0,0,0,0,0,0,0,0,0,0,0,0,0,0,0,0,0,0,0,0,0,0,0,0,0,0,0,0,0,0,0,0,0,0,0,0,0,0,0,0,0,0,0,0,0,0,0,0,0,0,0,0,0,0,0,0,0,0,0,0,0,0,0,0,0,0,0,0,0,0,0,0,0,0,0,0,0,0,0,0,0,0,0,0,0,0,0,0,0,0,0,0,0,0,0,0,0,0,0,0,0,0,0,0,0,0,0,0],"trees":[{"base_weights":[1.1304095E-2,-9.997492E0,1.747987E1,-4.9731135E0,-1.8514935E1,3.0867884E-2,2.9105043E1,5.224638E0,-8.8360405E0,-1.6437323E1,-3.179968E1,-4.074134E0,3.3676823E1,3.4458626E1,-2.4896822E0,-1.3766351E0,2.1478792E1,-2.0456356E1,-2.6762908E0,-2.130448E0,-2.078609E1,-2.2867796E-1,-1.6881252E1,6.0325894E0,-1.3759391E1,2.795133E1,1.6683997E-1,5.821911E1,2.9970781E1,-3.6197605E1,1.5389109E-1,8.589511E0,-8.183728E0,2.7484352E1,1.5495625E1,-1.1612584E1,-2.2116104E1,1.3372818E0,-8.279359E0,-8.366033E0,1.0020978E0,-2.4216759E1,9.494164E0,-8.498733E-2,-7.869596E-2,3.9872542E-1,2.2853113E1,-1.7299437E1,-6.1970067E0,1.6382506E-1,2.609259E1,4.761189E-1,1.1856984E-1,1.8837069E1,3.7229458E1,-1.457025E-1,-1.7768425E-1,8.279436E0,1.029083E1,-1.8024716E0,-1.11202345E1,2.9197716E1,2.6386215E1,6.7628704E-2,1.6359081E1,-1.0460319E1,-1.2429415E1,-2.3164862E1,-1.7570875E1,-8.294072E0,8.513832E0,-2.1770649E1,-4.9160566E0,-7.1242833E0,-1.0193666E1,1.7519459E0,2.5055996E-1,-8.256582E0,-2.880573E1,1.07734785E1,8.644063E0,9.0278635E0,-1.682677E1,2.149127E1,2.6860228E1,-1.1669267E-1,-1.4495293E1,-8.95221E-1,-7.2671824E0,7.278129E-2,1.4193438E-1,2.5429886E1,1.6838484E1,4.4762985E1,2.2186005E1,6.8428917E0,9.688378E0,6.560828E-2,7.081339E0,-2.7286239E0,-5.780041E-1,-8.675884E0,-1.3550326E1,2.3814348E1,1.4618888E-1,2.5990522E1,1.4842841E-1,1.5868875E1,8.428378E-2,-4.6838835E-2,-5.4237187E-2,-6.302858E-2,-1.0465794E1,-1.4628246E-1,-2.2592297E1,-9.638264E-2,-1.7308493E1,-1.0474075E1,-4.0045652E0,1.649454E1,6.17585E-1,-9.880512E-2,-2.2247375E1,1.9358356E-1,-9.995945E0,-6.57404E0,-8.181603E0,-9.12877E0,-1.105228E1,2.0954189E-1,2.2802882E0,9.372349E-1,-6.022614E-1,-6.5813227E0,-9.959247E0,-4.27372E1,-2.310118E1,9.9638195E0,1.1696393E1,9.050627E0,8.106189E0,7.062043E-1,1.7293076E1,-1.5424124E1,-9.284442E-2,1.1187291E-1,2.0431515E1,1.23999186E-1,1.5726624E-1,-1.3394368E1,-1.512127E1,1.8106841E0,-2.3114343E0,-5.731932E0,-8.630224E0,1.3994361E-1,1.190251E-1,1.3728917E1,1.12540305E-1,4.8705982E1,3.2807224E1,8.383298E-2,2.720203E1,6.1435165E0,9.312037E0,1.2764163E1,8.734611E0,3.587636E-2,2.3090048E-2,-5.847339E0,-2.407186E0,-9.978469E-1,7.720546E-1,-7.001385E0,-1.0233911E1,-7.739112E-2,-6.509423E-2,1.2713273E-1,8.7177105E-2,1.329699E-1,2.4085983E1,8.1258744E-2,7.107095E-2,-9.110053E0,-5.5225603E-2,-9.133953E-2,-2.3868721E1,-7.989234E-2,-8.8971145E-2,-1.2492281E1,-8.530733E0,-4.8008304E0,-3.3021786E0,8.698038E0,2.4252481E1,-5.2802424E0,6.55314E0,-1.0973869E-1,-9.593201E-2,-1.1159088E1,1.1432193E1,-6.6020136E0,-1.3358356E1,-4.094783E0,-6.781081E0,-4.1612137E-2,-1.927045E-2,-4.662173E-2,-7.8513722E0,-5.5336606E-2,-4.520661E-2,-1.0804327E0,6.782686E-1,1.5991801E0,2.820711E0,1.683484E0,5.059883E-1,-1.6865513E0,-2.897322E-1,-6.9663405E0,-5.278941E0,-7.164923E0,-1.2229119E1,-3.9249245E1,-4.6219276E1,-2.0544132E1,-2.6765026E1,6.338356E-2,9.001282E0,7.0847675E-2,5.537883E-2,4.2558394E-2,7.3150545E-2,7.4724307E0,9.899656E0,9.428408E-1,4.1873973E-2,2.0480982E1,1.5651186E1,-8.6304985E-2,-7.3898636E-2,1.854123E1,1.0869101E-1,-1.0197684E1,-1.656197E1,-1.5849405E1,-1.4381738E1,2.7775235E0,3.2554895E-1,-1.3674773E-1,-3.8010826E0,-4.119044E0,-6.616669E0,-1.2730404E1,-6.7229257E0,6.1972264E-2,1.4762557E1,2.310932E-1,2.510808E-1,1.7288937E-1,1.4958446E-1,1.1866704E-1,1.3825542E-1,3.200628E-2,1.5805088E-2,4.2918604E-2,5.5022508E-2,7.054791E-2,5.596849E-2,4.4495527E-2,7.7836444E-3,-4.062129E-2,-2.1894215E-2,-1.0894675E-2,-2.3748593E-2,7.116804E-3,-5.4926267E-3,1.6734155E-2,1.2527513E-3,-2.700415E-2,-3.7347917E-2,-4.5505796E-2,-5.523239E-2,6.3101664E-2,1.2132174E-1,-5.197705E-2,-2.6388407E-2,-1.1241883E-1,-1.2471866E-1,-5.1429823E-2,-7.17443E-2,-4.0369708E-2,-4.9827095E-2,-1.7144997E-2,-2.6346171E-2,-1.3266025E-2,-2.1519713E-2,2.5699412E-2,4.3648135E-2,1.1563715E-1,1.2640226E-1,-6.4080586E-3,-3.7923284E-2,2.4826331E-2,3.6319394E-2,-6.3425146E-2,-5.088844E-2,5.4453082E-2,6.977211E-2,-3.4184285E-2,-2.6275715E-2,-3.4976568E-2,-7.510059E-2,-2.5782555E-2,-1.2186596E-2,-5.7581805E-2,-3.185642E-2,-2.6976384E-2,-4.298348E-2,-5.6385284E-4,-1.0012207E-2,3.7300188E-4,3.9621573E-3,9.449122E-3,-2.3457482E-2,1.30545E-2,2.932537E-2,1.1891449E-2,6.9010574E-3,-1.2121195E-2,3.2263666E-3,-4.421897E-3,-1.1929052E-2,5.586924E-3,-4.9720854E-3,-3.3259895E-2,-3.969651E-2,-1.9923776E-2,-2.7173666E-2,-2.9585734E-2,-4.080348E-2,-5.213109E-2,-6.128603E-2,-1.8285474E-1,-1.9652757E-1,-2.3424344E-1,-2.147436E-1,-1.1378247E-1,-7.5222366E-2,-1.4011589E-1,-1.2124584E-1,8.849298E-3,4.7716808E-2,3.741672E-2,2.450747E-2,5.4474253E-2,4.126113E-2,2.022489E-3,7.6675345E-3,-2.7225815E-2,2.0657964E-3,1.04038015E-1,8.967483E-2,7.134611E-2,9.588039E-2,9.303086E-2,5.47276E-2,-6.0903665E-2,-4.7069214E-2,-8.600976E-2,-7.705771E-2,-6.580674E-2,-7.8282334E-2,-7.3071055E-2,-6.371641E-2,1.1366225E-2,2.259464E-2,-3.850563E-4,7.5044283E-3,3.4627018E-3,-5.0035347E-3,-2.6403943E-2,-1.6578695E-2,-1.0560989E-2,-3.1263076E-2,-3.3849545E-2,-2.0909749E-2,-3.6206093E-2,-6.312765E-2,-3.498997E-2,-2.0938467E-2,7.441816E-2,6.89114E-2],"categories":[],"categories_nodes":[],"categories_segments":[],"categories_sizes":[],"default_left":[0,0,0,0,0,0,0,0,0,0,0,0,0,0,0,0,0,0,0,0,0,0,0,0,0,0,0,0,0,0,0,0,0,0,0,0,0,0,0,0,0,0,0,0,0,0,0,0,0,0,0,0,0,0,0,0,0,0,0,0,0,0,0,0,0,0,0,0,0,0,0,0,0,0,0,0,0,0,0,0,0,0,0,0,0,0,0,0,0,0,0,0,0,0,0,0,0,0,0,0,0,0,0,0,0,0,0,0,0,0,0,0,0,0,0,0,0,0,0,0,0,0,0,0,0,0,0,0,0,0,0,0,0,0,0,0,0,0,0,0,0,0,0,0,0,0,0,0,0,0,0,0,0,0,0,0,0,0,0,0,0,0,0,0,0,0,0,0,0,0,0,0,0,0,0,0,0,0,0,0,0,0,0,0,0,0,0,0,0,0,0,0,0,0,0,0,0,0,0,0,0,0,0,0,0,0,0,0,0,0,0,0,0,0,0,0,0,0,0,0,0,0,0,0,0,0,0,0,0,0,0,0,0,0,0,0,0,0,0,0,0,0,0,0,0,0,0,0,0,0,0,0,0,0,0,0,0,0,0,0,0,0,0,0,0,0,0,0,0,0,0,0,0,0,0,0,0,0,0,0,0,0,0,0,0,0,0,0,0,0,0,0,0,0,0,0,0,0,0,0,0,0,0,0,0,0,0,0,0,0,0,0,0,0,0,0,0,0,0,0,0,0,0,0,0,0,0,0,0,0,0,0,0,0,0,0,0,0,0,0,0,0,0,0,0,0,0,0,0,0,0,0,0,0,0,0,0,0,0,0,0,0,0,0,0,0,0,0,0,0,0,0,0,0,0,0,0,0,0,0,0,0,0,0,0,0,0,0,0,0,0,0,0],"id":0,"left_children":[1,3,5,7,9,11,13,15,17,19,21,23,25,27,29,31,33,35,37,39,41,-1,43,45,47,49,-1,51,53,55,-1,57,59,61,63,65,67,69,71,73,75,77,79,-1,-1,81,83,85,87,-1,89,-1,-1,91,93,-1,-1,95,97,99,101,103,105,-1,107,109,111,113,115,117,119,121,123,125,127,129,131,133,135,137,139,141,143,145,147,-1,149,151,153,-1,-1,155,157,159,161,163,165,-1,167,169,171,173,175,177,-1,179,-1,181,-1,-1,-1,-1,183,-1,185,-1,187,189,191,193,195,-1,197,199,201,203,205,207,209,211,213,215,217,219,221,223,225,227,229,231,233,235,237,239,-1,-1,241,-1,-1,243,245,247,249,251,253,-1,-1,255,-1,257,259,-1,261,263,265,267,269,-1,-1,271,273,275,277,279,281,-1,-1,-1,-1,-1,283,-1,-1,285,-1,-1,287,-1,-1,289,291,293,295,297,299,301,303,-1,-1,305,307,309,311,313,315,-1,-1,-1,317,-1,-1,319,321,323,325,327,329,331,333,335,337,339,341,343,345,347,349,-1,351,-1,-1,-1,-1,353,355,357,359,361,363,-1,-1,365,-1,367,369,371,373,375,377,379,381,383,385,387,389,-1,391,-1,-1,-1,-1,-1,-1,-1,-1,-1,-1,-1,-1,-1,-1,-1,-1,-1,-1,-1,-1,-1,-1,-1,-1,-1,-1,-1,-1,-1,-1,-1,-1,-1,-1,-1,-1,-1,-1,-1,-1,-1,-1,-1,-1,-1,-1,-1,-1,-1,-1,-1,-1,-1,-1,-1,-1,-1,-1,-1,-1,-1,-1,-1,-1,-1,-1,-1,-1,-1,-1,-1,-1,-1,-1,-1,-1,-1,-1,-1,-1,-1,-1,-1,-1,-1,-1,-1,-1,-1,-1,-1,-1,-1,-1,-1,-1,-1,-1,-1,-1,-1,-1,-1,-1,-1,-1,-1,-1,-1,-1,-1,-1,-1,-1,-1,-1,-1,-1,-1,-1,-1,-1,-1,-1,-1,-1,-1,-1,-1,-1,-1,-1,-1,-1,-1,-1],"loss_changes":[1.5334398E7,2.3860415E6,6.480431E6,1.3816725E6,5.70275E5,1.7646761E6,3.243196E6,1.03400406E6,1.8206804E6,1.1131475E6,6.2582175E5,1.1147745E6,2.593375E3,1.745948E6,3.1870322E6,4.6509397E5,9.943475E4,1.2900125E5,3.739147E5,8.151222E4,1.425701E6,0E0,1.8103125E2,5.281354E5,1.555345E5,3.2601562E1,0E0,3.467135E6,1.113776E6,2.05125E2,0E0,1.34975E3,7.629841E4,1.573375E3,1.6786562E3,1.1346562E3,3.4811E4,6.697499E5,3.1472475E5,3.0656484E3,1.5645757E3,9.023915E5,1.3908984E3,0E0,0E0,6.2097356E5,6.8519375E3,7.2780875E4,1.05216875E4,0E0,2.5166133E3,0E0,0E0,7.1183125E4,9.44782E5,0E0,0E0,4.684922E3,4.1398164E3,1.4546357E3,1.6406656E4,1.142E3,2.99625E2,0E0,2.890625E1,1.828164E2,5.727344E2,2.250425E4,3.3028125E2,3.8629156E4,3.4987634E5,4.065E2,1.4422745E5,4.1066016E2,3.7396875E2,1.1316987E3,8.144438E2,7.7650625E3,7.59411E5,2.5229688E2,8.313281E1,1.9141697E5,3.8754062E3,9.4490625E2,1.641125E3,0E0,1.641125E3,1.206398E3,3.1621953E3,0E0,0E0,3.370625E3,8.0308625E4,2.60028E5,6.95705E4,1.9461211E3,3.332375E3,0E0,8.315137E1,7.122451E2,3.1584872E2,3.5379844E3,4.2026562E2,3.021797E2,0E0,9.82E2,0E0,2.8404688E2,0E0,0E0,0E0,0E0,4.676367E1,0E0,2.6994E4,0E0,6.80375E2,1.0608594E4,7.577383E2,1.6672956E5,9.779689E4,0E0,1.165625E1,3.5375803E5,3.1674625E4,2.458086E2,3.550371E2,3.3845703E1,7.8085938E0,2.1631552E2,3.7391846E2,2.461864E2,2.0903255E2,6.4609375E2,8.525797E3,3.1326E4,6.291125E4,7.194863E2,2.5574219E1,7.569219E2,3.2607617E2,2.1793481E2,6.873625E3,1.9817188E2,0E0,0E0,1.5578438E3,0E0,0E0,1.0100406E4,6.3896875E2,1.5351196E2,6.6665186E2,1.00312305E3,6.2573086E3,0E0,0E0,2.7399375E3,0E0,1.2418E4,6.35875E3,0E0,3.554E3,1.0650703E3,1.2558789E2,3.8359766E2,2.430164E3,0E0,0E0,1.739895E2,2.7170044E2,1.3427933E2,1.7893823E2,5.8377734E2,5.6339844E2,0E0,0E0,0E0,0E0,0E0,2.2978438E3,0E0,0E0,3.1909033E2,0E0,0E0,5.1325E3,0E0,0E0,5.575953E3,5.021953E2,4.7168457E2,4.649629E2,1.0705547E3,4.669375E2,1.3804168E4,1.7551719E3,0E0,0E0,1.6769844E3,9.025156E2,6.2208984E2,1.7350938E4,6.8213745E1,5.5338477E2,0E0,0E0,0E0,8.942627E1,0E0,0E0,8.831288E1,2.0690231E1,1.00323E3,2.466167E2,5.1559998E1,2.2831609E2,7.7867065E1,5.0629007E2,1.1617969E2,7.79707E1,7.382793E2,1.8984375E2,4.885E2,2.60525E3,5.6275125E4,9.44875E3,0E0,1.2702168E3,0E0,0E0,0E0,0E0,7.7788086E1,4.1435547E1,3.3796594E2,7.8600385E2,2.9034375E2,3.4565E3,0E0,0E0,8.6325E2,0E0,4.8473438E2,4.190625E1,8.0890625E1,4.231875E2,3.821237E1,2.2262829E1,6.512412E1,5.3076782E1,1.1509136E3,3.025664E2,1.360664E2,5.583008E2,0E0,1.38125E2,0E0,0E0,0E0,0E0,0E0,0E0,0E0,0E0,0E0,0E0,0E0,0E0,0E0,0E0,0E0,0E0,0E0,0E0,0E0,0E0,0E0,0E0,0E0,0E0,0E0,0E0,0E0,0E0,0E0,0E0,0E0,0E0,0E0,0E0,0E0,0E0,0E0,0E0,0E0,0E0,0E0,0E0,0E0,0E0,0E0,0E0,0E0,0E0,0E0,0E0,0E0,0E0,0E0,0E0,0E0,0E0,0E0,0E0,0E0,0E0,0E0,0E0,0E0,0E0,0E0,0E0,0E0,0E0,0E0,0E0,0E0,0E0,0E0,0E0,0E0,0E0,0E0,0E0,0E0,0E0,0E0,0E0,0E0,0E0,0E0,0E0,0E0,0E0,0E0,0E0,0E0,0E0,0E0,0E0,0E0,0E0,0E0,0E0,0E0,0E0,0E0,0E0,0E0,0E0,0E0,0E0,0E0,0E0,0E0,0E0,0E0,0E0,0E0,0E0,0E0,0E0,0E0,0E0,0E0,0E0,0E0,0E0,0E0,0E0,0E0,0E0,0E0,0E0,0E0,0E0,0E0,0E0,0E0,0E0,0E0,0E0],"parents":[2147483647,0,0,1,1,2,2,3,3,4,4,5,5,6,6,7,7,8,8,9,9,10,10,11,11,12,12,13,13,14,14,15,15,16,16,17,17,18,18,19,19,20,20,22,22,23,23,24,24,25,25,27,27,28,28,29,29,31,31,32,32,33,33,34,34,35,35,36,36,37,37,38,38,39,39,40,40,41,41,42,42,45,45,46,46,47,47,48,48,50,50,53,53,54,54,57,57,58,58,59,59,60,60,61,61,62,62,64,64,65,65,66,66,67,67,68,68,69,69,70,70,71,71,72,72,73,73,74,74,75,75,76,76,77,77,78,78,79,79,80,80,81,81,82,82,83,83,84,84,86,86,87,87,88,88,91,91,92,92,93,93,94,94,95,95,96,96,98,98,99,99,100,100,101,101,102,102,103,103,105,105,107,107,112,112,114,114,116,116,117,117,118,118,119,119,120,120,122,122,123,123,124,124,125,125,126,126,127,127,128,128,129,129,130,130,131,131,132,132,133,133,134,134,135,135,136,136,137,137,138,138,139,139,140,140,141,141,142,142,143,143,146,146,149,149,150,150,151,151,152,152,153,153,154,154,157,157,159,159,160,160,162,162,163,163,164,164,165,165,166,166,169,169,170,170,171,171,172,172,173,173,174,174,180,180,183,183,186,186,189,189,190,190,191,191,192,192,193,193,194,194,195,195,196,196,199,199,200,200,201,201,202,202,203,203,204,204,208,208,211,211,212,212,213,213,214,214,215,215,216,216,217,217,218,218,219,219,220,220,221,221,222,222,223,223,224,224,225,225,226,226,228,228,233,233,234,234,235,235,236,236,237,237,238,238,241,241,243,243,244,244,245,245,246,246,247,247,248,248,249,249,250,250,251,251,252,252,253,253,254,254,256,256],"right_children":[2,4,6,8,10,12,14,16,18,20,22,24,26,28,30,32,34,36,38,40,42,-1,44,46,48,50,-1,52,54,56,-1,58,60,62,64,66,68,70,72,74,76,78,80,-1,-1,82,84,86,88,-1,90,-1,-1,92,94,-1,-1,96,98,100,102,104,106,-1,108,110,112,114,116,118,120,122,124,126,128,130,132,134,136,138,140,142,144,146,148,-1,150,152,154,-1,-1,156,158,160,162,164,166,-1,168,170,172,174,176,178,-1,180,-1,182,-1,-1,-1,-1,184,-1,186,-1,188,190,192,194,196,-1,198,200,202,204,206,208,210,212,214,216,218,220,222,224,226,228,230,232,234,236,238,240,-1,-1,242,-1,-1,244,246,248,250,252,254,-1,-1,256,-1,258,260,-1,262,264,266,268,270,-1,-1,272,274,276,278,280,282,-1,-1,-1,-1,-1,284,-1,-1,286,-1,-1,288,-1,-1,290,292,294,296,298,300,302,304,-1,-1,306,308,310,312,314,316,-1,-1,-1,318,-1,-1,320,322,324,326,328,330,332,334,336,338,340,342,344,346,348,350,-1,352,-1,-1,-1,-1,354,356,358,360,362,364,-1,-1,366,-1,368,370,372,374,376,378,380,382,384,386,388,390,-1,392,-1,-1,-1,-1,-1,-1,-1,-1,-1,-1,-1,-1,-1,-1,-1,-1,-1,-1,-1,-1,-1,-1,-1,-1,-1,-1,-1,-1,-1,-1,-1,-1,-1,-1,-1,-1,-1,-1,-1,-1,-1,-1,-1,-1,-1,-1,-1,-1,-1,-1,-1,-1,-1,-1,-1,-1,-1,-1,-1,-1,-1,-1,-1,-1,-1,-1,-1,-1,-1,-1,-1,-1,-1,-1,-1,-1,-1,-1,-1,-1,-1,-1,-1,-1,-1,-1,-1,-1,-1,-1,-1,-1,-1,-1,-1,-1,-1,-1,-1,-1,-1,-1,-1,-1,-1,-1,-1,-1,-1,-1,-1,-1,-1,-1,-1,-1,-1,-1,-1,-1,-1,-1,-1,-1,-1,-1,-1,-1,-1,-1,-1,-1,-1,-1,-1,-1],"split_conditions":[1.8E1,8E0,7E0,2E0,1.4E1,3E1,6E0,1.3E1,7E0,2E0,1.5E1,2.2E1,5E0,1E0,2.4E1,5E0,1.4E1,3E0,1E1,2E0,1.3E1,-2.2867796E-1,3.5E1,2.1E1,3E0,1E0,1.6683997E-1,2.5E1,3E0,2E0,1.5389109E-1,5.1E1,1.1E1,2.3E1,2.1E1,2.5E1,6E0,6E0,1.3E1,3.6E1,8E0,4E0,2.4E1,-8.498733E-2,-7.869596E-2,2E1,4.5E1,2.7E1,1E1,1.6382506E-1,2E0,4.761189E-1,1.1856984E-1,1.9E1,2.8E1,-1.457025E-1,-1.7768425E-1,4E0,4E0,3.4E1,1.2E1,3E0,5.7E1,6.7628704E-2,4.7E1,1.1E1,5.3E1,1E1,6E0,3E0,8E0,1.5E1,1.5E1,2.4E1,4.7E1,1.5E1,3.3E1,3E0,6E0,1.3E1,4.4E1,1.9E1,3.7E1,1.9E1,5.7E1,-1.1669267E-1,2.2E1,2.3E1,3.3E1,7.278129E-2,1.4193438E-1,1.5E1,2.6E1,5E0,2.9E1,4E1,1.2E1,6.560828E-2,5.9E1,3E0,5.4E1,2.9E1,5E0,2E0,1.4618888E-1,4.3E1,1.4842841E-1,3.7E1,8.428378E-2,-4.6838835E-2,-5.4237187E-2,-6.302858E-2,5.6E1,-1.4628246E-1,1.1E1,-9.638264E-2,3.3E1,2E0,2.8E1,7E0,9E0,-9.880512E-2,5.6E1,1.4E1,1.6E1,2E0,3.5E1,4.4E1,5.8E1,4E0,3.5E1,1.2E1,3.9E1,4.6E1,2.7E1,5E0,5E0,3E0,1.4E1,4.3E1,5.6E1,4.4E1,2E1,4E0,-9.284442E-2,1.1187291E-1,3.2E1,1.23999186E-1,1.5726624E-1,2.8E1,2.8E1,6E0,4E0,2.3E1,2.3E1,1.3994361E-1,1.190251E-1,2E1,1.12540305E-1,4E0,2.7E1,8.383298E-2,1.7E1,3.5E1,4.9E1,5E0,4.9E1,3.587636E-2,2.3090048E-2,1E0,3.2E1,3.5E1,5.5E1,9E0,4.6E1,-7.739112E-2,-6.509423E-2,1.2713273E-1,8.7177105E-2,1.329699E-1,4.4E1,8.1258744E-2,7.107095E-2,5.5E1,-5.5225603E-2,-9.133953E-2,1.7E1,-7.989234E-2,-8.8971145E-2,3.2E1,5.2E1,9E0,4.9E1,4E0,4.5E1,2.3E1,2.3E1,-1.0973869E-1,-9.593201E-2,1.7E1,5.5E1,4.5E1,1.5E1,1E0,3E0,-4.1612137E-2,-1.927045E-2,-4.662173E-2,4.5E1,-5.5336606E-2,-4.520661E-2,2E0,6E0,3.4E1,5.9E1,3E0,1.3E1,3.6E1,4.6E1,4.1E1,4.9E1,1.4E1,3.3E1,2.2E1,3.3E1,1.1E1,7E0,6.338356E-2,4E0,7.0847675E-2,5.537883E-2,4.2558394E-2,7.3150545E-2,5.5E1,5.8E1,2.4E1,4.5E1,1.4E1,5.2E1,-8.6304985E-2,-7.3898636E-2,3.1E1,1.0869101E-1,4E0,9E0,2.5E1,4.8E1,5E0,9E0,2E0,5E0,2.3E1,3E1,3.4E1,5.6E1,6.1972264E-2,3.4E1,2.310932E-1,2.510808E-1,1.7288937E-1,1.4958446E-1,1.1866704E-1,1.3825542E-1,3.200628E-2,1.5805088E-2,4.2918604E-2,5.5022508E-2,7.054791E-2,5.596849E-2,4.4495527E-2,7.7836444E-3,-4.062129E-2,-2.1894215E-2,-1.0894675E-2,-2.3748593E-2,7.116804E-3,-5.4926267E-3,1.6734155E-2,1.2527513E-3,-2.700415E-2,-3.7347917E-2,-4.5505796E-2,-5.523239E-2,6.3101664E-2,1.2132174E-1,-5.197705E-2,-2.6388407E-2,-1.1241883E-1,-1.2471866E-1,-5.1429823E-2,-7.17443E-2,-4.0369708E-2,-4.9827095E-2,-1.7144997E-2,-2.6346171E-2,-1.3266025E-2,-2.1519713E-2,2.5699412E-2,4.3648135E-2,1.1563715E-1,1.2640226E-1,-6.4080586E-3,-3.7923284E-2,2.4826331E-2,3.6319394E-2,-6.3425146E-2,-5.088844E-2,5.4453082E-2,6.977211E-2,-3.4184285E-2,-2.6275715E-2,-3.4976568E-2,-7.510059E-2,-2.5782555E-2,-1.2186596E-2,-5.7581805E-2,-3.185642E-2,-2.6976384E-2,-4.298348E-2,-5.6385284E-4,-1.0012207E-2,3.7300188E-4,3.9621573E-3,9.449122E-3,-2.3457482E-2,1.30545E-2,2.932537E-2,1.1891449E-2,6.9010574E-3,-1.2121195E-2,3.2263666E-3,-4.421897E-3,-1.1929052E-2,5.586924E-3,-4.9720854E-3,-3.3259895E-2,-3.969651E-2,-1.9923776E-2,-2.7173666E-2,-2.9585734E-2,-4.080348E-2,-5.213109E-2,-6.128603E-2,-1.8285474E-1,-1.9652757E-1,-2.3424344E-1,-2.147436E-1,-1.1378247E-1,-7.5222366E-2,-1.4011589E-1,-1.2124584E-1,8.849298E-3,4.7716808E-2,3.741672E-2,2.450747E-2,5.4474253E-2,4.126113E-2,2.022489E-3,7.6675345E-3,-2.7225815E-2,2.0657964E-3,1.04038015E-1,8.967483E-2,7.134611E-2,9.588039E-2,9.303086E-2,5.47276E-2,-6.0903665E-2,-4.7069214E-2,-8.600976E-2,-7.705771E-2,-6.580674E-2,-7.8282334E-2,-7.3071055E-2,-6.371641E-2,1.1366225E-2,2.259464E-2,-3.850563E-4,7.5044283E-3,3.4627018E-3,-5.0035347E-3,-2.6403943E-2,-1.6578695E-2,-1.0560989E-2,-3.1263076E-2,-3.3849545E-2,-2.0909749E-2,-3.6206093E-2,-6.312765E-2,-3.498997E-2,-2.0938467E-2,7.441816E-2,6.89114E-2],"split_indices":[0,3,3,1,0,0,1,0,3,1,0,0,7,1,0,0,0,1,0,0,0,0,7,0,1,7,0,0,1,7,0,7,0,7,7,7,1,0,0,7,0,0,7,0,0,0,7,0,7,0,7,0,0,0,0,0,0,0,0,7,0,7,7,0,7,7,7,0,7,0,0,7,0,7,7,7,7,0,0,7,7,0,7,7,7,0,7,0,7,0,0,7,0,1,0,7,7,0,7,7,7,7,7,7,0,7,0,7,0,0,0,0,7,0,0,0,7,0,7,0,0,0,7,0,0,7,7,7,7,7,7,7,7,7,7,0,1,7,7,7,7,7,7,7,0,0,7,0,0,0,0,7,7,0,0,0,0,0,0,1,7,0,7,7,7,7,7,0,0,7,7,7,7,7,7,0,0,0,0,0,7,0,0,7,0,0,0,0,0,7,7,7,7,7,7,7,7,0,0,7,7,7,7,7,7,0,0,0,7,0,0,7,7,7,7,7,7,7,7,7,7,7,7,7,7,0,0,0,7,0,0,0,0,7,7,7,7,7,7,0,0,7,0,7,7,7,7,7,7,7,7,7,7,7,7,0,7,0,0,0,0,0,0,0,0,0,0,0,0,0,0,0,0,0,0,0,0,0,0,0,0,0,0,0,0,0,0,0,0,0,0,0,0,0,0,0,0,0,0,0,0,0,0,0,0,0,0,0,0,0,0,0,0,0,0,0,0,0,0,0,0,0,0,0,0,0,0,0,0,0,0,0,0,0,0,0,0,0,0,0,0,0,0,0,0,0,0,0,0,0,0,0,0,0,0,0,0,0,0,0,0,0,0,0,0,0,0,0,0,0,0,0,0,0,0,0,0,0,0,0,0,0,0,0,0,0,0,0,0,0,0,0,0],"split_type":[0,0,0,0,0,0,0,0,0,0,0,0,0,0,0,0,0,0,0,0,0,0,0,0,0,0,0,0,0,0,0,0,0,0,0,0,0,0,0,0,0,0,0,0,0,0,0,0,0,0,0,0,0,0,0,0,0,0,0,0,0,0,0,0,0,0,0,0,0,0,0,0,0,0,0,0,0,0,0,0,0,0,0,0,0,0,0,0,0,0,0,0,0,0,0,0,0,0,0,0,0,0,0,0,0,0,0,0,0,0,0,0,0,0,0,0,0,0,0,0,0,0,0,0,0,0,0,0,0,0,0,0,0,0,0,0,0,0,0,0,0,0,0,0,0,0,0,0,0,0,0,0,0,0,0,0,0,0,0,0,0,0,0,0,0,0,0,0,0,0,0,0,0,0,0,0,0,0,0,0,0,0,0,0,0,0,0,0,0,0,0,0,0,0,0,0,0,0,0,0,0,0,0,0,0,0,0,0,0,0,0,0,0,0,0,0,0,0,0,0,0,0,0,0,0,0,0,0,0,0,0,0,0,0,0,0,0,0,0,0,0,0,0,0,0,0,0,0,0,0,0,0,0,0,0,0,0,0,0,0,0,0,0,0,0,0,0,0,0,0,0,0,0,0,0,0,0,0,0,0,0,0,0,0,0,0,0,0,0,0,0,0,0,0,0,0,0,0,0,0,0,0,0,0,0,0,0,0,0,0,0,0,0,0,0,0,0,0,0,0,0,0,0,0,0,0,0,0,0,0,0,0,0,0,0,0,0,0,0,0,0,0,0,0,0,0,0,0,0,0,0,0,0,0,0,0,0,0,0,0,0,0,0,0,0,0,0,0,0,0,0,0,0,0,0,0,0,0,0,0,0,0,0,0,0,0,0,0,0,0,0,0,0],"sum_hessian":[8.7703E4,5.5757E4,3.1946E4,3.5071E4,2.0686E4,1.2774E4,1.9172E4,9.635E3,2.5436E4,1.7891E4,2.795E3,1.1386E4,1.388E3,1.6394E4,2.778E3,6.853E3,2.782E3,8.811E3,1.6625E4,4.171E3,1.372E4,1.391E3,1.404E3,5.572E3,5.814E3,1.15E2,1.273E3,2.602E3,1.3792E4,1.395E3,1.383E3,2.781E3,4.072E3,1.386E3,1.396E3,1.394E3,7.417E3,9.687E3,6.938E3,1.394E3,2.777E3,1.2324E4,1.396E3,8.18E2,5.86E2,4.175E3,1.397E3,3.959E3,1.855E3,2.3E1,9.2E1,1.205E3,1.397E3,5.445E3,8.347E3,4.6E1,1.349E3,2.359E3,4.22E2,1.284E3,2.788E3,5.28E2,8.58E2,4.88E2,9.08E2,5.86E2,8.08E2,6.022E3,1.395E3,4.136E3,5.551E3,1.383E3,5.555E3,8.34E2,5.6E2,1.389E3,1.388E3,2.753E3,9.571E3,5.51E2,8.45E2,2.782E3,1.393E3,1.049E3,3.48E2,1.178E3,2.781E3,3.12E2,1.543E3,2.1E1,7.1E1,1.263E3,4.182E3,5.56E3,2.787E3,1.172E3,1.187E3,2.11E2,2.11E2,7.3E2,5.54E2,1.393E3,1.395E3,6.9E1,4.59E2,7.9E2,6.8E1,6.04E2,3.04E2,2.59E2,3.27E2,6.44E2,1.64E2,4.63E2,5.559E3,1.4E2,1.255E3,2.741E3,1.395E3,2.76E3,2.791E3,3.41E2,1.042E3,2.77E3,2.785E3,5.55E2,2.79E2,2.57E2,3.03E2,3.55E2,1.034E3,7.69E2,6.19E2,1.391E3,1.362E3,2.778E3,6.793E3,3.02E2,2.49E2,4.69E2,3.76E2,1.387E3,1.395E3,8.55E2,5.38E2,4.37E2,6.12E2,2.79E2,6.9E1,1.019E3,1.762E3,1.07E2,2.05E2,7.29E2,8.14E2,3.03E2,9.6E2,2.789E3,1.393E3,4.178E3,1.382E3,1.396E3,1.391E3,9.17E2,2.55E2,2.77E2,9.1E2,1.87E2,2.4E1,6.6E1,6.64E2,4.23E2,1.31E2,6.75E2,7.18E2,1.14E2,1.281E3,4.7E1,2.2E1,4.68E2,3.22E2,3.71E2,2.33E2,6.9E1,9.5E1,1.379E3,4.18E3,6.27E2,6.28E2,1.341E3,1.4E3,6.5E2,7.45E2,1.378E3,1.382E3,1.4E3,1.391E3,9.5E2,9.2E1,1.378E3,1.392E3,1.388E3,1.397E3,4.5E1,5.1E2,2.57E2,2.2E1,1.87E2,7E1,2.56E2,4.7E1,9.4E1,2.61E2,4.6E2,5.74E2,2.8E2,4.89E2,1.37E2,4.82E2,1.069E3,3.22E2,6.13E2,7.49E2,1.396E3,1.382E3,4.006E3,2.787E3,6.9E1,2.33E2,2.2E1,2.27E2,4.47E2,2.2E1,2.83E2,9.3E1,1.022E3,3.65E2,4.69E2,9.26E2,8.9E1,7.66E2,3.08E2,3.04E2,5.1E2,5.09E2,8.74E2,8.88E2,6.4E1,4.3E1,8.4E1,1.21E2,2.61E2,4.68E2,2.56E2,5.58E2,1.4E3,1.389E3,2.781E3,1.397E3,6.21E2,7.61E2,3.93E2,9.98E2,8.02E2,1.15E2,2.07E2,4.8E1,1.15E2,1.62E2,8.64E2,4.6E1,2.1E1,4.5E1,6.22E2,4.2E1,2E1,4.03E2,2E1,1.11E2,2.1E2,4.65E2,3.95E2,3.23E2,2.2E1,3E2,4.7E1,2.2E1,2.785E3,1.395E3,7.13E2,6.28E2,1.216E3,1.84E2,2.08E2,4.42E2,4.9E2,2.55E2,9.2E1,1.286E3,1.038E3,3.44E2,5.4E2,8.6E2,5.26E2,8.65E2,3.9E2,9.88E2,1.273E3,1.19E2,1.042E3,3.46E2,3.45E2,1.052E3,2.4E1,2.1E1,2.2E1,4.88E2,2.3E1,4.7E1,4.8E1,4.6E1,4.8E1,2.13E2,4.38E2,2.2E1,5.51E2,2.3E1,7.1E1,2.09E2,2.3E1,4.66E2,6.9E1,6.8E1,1.62E2,3.2E2,9.51E2,1.18E2,6.6E1,2.56E2,3.22E2,2.91E2,1.36E2,6.13E2,5.14E2,8.82E2,7.62E2,6.2E2,2.605E3,1.401E3,1.388E3,1.399E3,2.3E1,2.1E2,2.6E2,2.3E1,4.5E1,4.8E1,5.56E2,4.66E2,2.2E1,3.43E2,3.29E2,1.4E2,7.39E2,1.87E2,2.86E2,2.2E1,9.5E1,4.15E2,2.05E2,3.04E2,6.9E1,8.05E2,6.09E2,2.79E2,5.4E1,1E1,3.3E1,1E1,4.3E1,4.1E1,2.1E1,1E2,1.42E2,1.19E2,4.1E2,5.8E1,1.1E1,2.45E2,4.7E2,8.8E1,7.85E2,6.04E2],"tree_param":{"num_deleted":"0","num_feature":"8","num_nodes":"393","size_leaf_vector":"1"}},{"base_weights":[-5.895658E-2,2.8797705E0,-7.440766E0,-4.054411E0,5.8460274E0,-1.5164104E1,-5.2260284E0,-4.9017525E0,8.903366E-3,1.2076343E1,4.1323104E0,-1.07247405E-1,-8.344889E0,-4.3868814E0,-5.867727E0,-2.722916E0,-1.3198308E1,1.2574351E0,-6.5998435E-1,1.1511397E1,1.3767241E1,-3.8395855E-1,8.9435835E0,-1.0191101E1,-8.096301E0,-3.3246796E0,-4.63794E0,-5.424982E0,-6.3063574E0,-5.773149E0,-1.2770799E0,-8.392315E0,-1.38367195E1,-6.977843E-1,1.4670678E0,-1.0784024E0,1.6158024E0,1.0558285E1,1.178114E1,7.633704E-2,1.3469349E1,1.8861281E0,-3.0467448E0,9.697103E0,8.189332E0,-5.9926767E-2,-4.7798637E-2,-7.506987E0,-8.691604E0,-2.5110621E0,-4.125494E0,-4.3678083E0,-4.840543E0,-4.863925E0,-5.6261234E0,-6.3639994E0,-2.1262513E-2,-4.8623943E0,-6.2161736E0,-1.5900481E-1,-2.0229142E0,-7.142124E0,-4.83826E-2,-1.4087387E1,-5.78863E-2,-5.975528E-3,-6.8786775E-4,1.800521E0,8.9242923E-1,-1.9800557E-2,-9.8403174E-1,1.4018037E0,1.2859531E-2,1.0857998E1,9.832824E0,1.322828E1,1.1476835E1,1.3262748E1,6.8889186E-2,3.720877E0,1.4277984E0,-3.1208994E0,-1.6330614E0,9.570505E0,5.1980283E-2,8.049976E0,9.220678E0,-8.092194E0,-7.017585E0,-4.387893E-2,-3.9632425E-2,-1.9461175E-2,-2.1358204E0,-1.4936771E-2,-4.389507E0,-4.648114E0,-4.143033E0,-5.880785E0,-4.743897E0,-2.6257765E-2,-2.3417726E-2,-5.829876E0,-2.596194E-2,-2.5182625E-2,-6.4404383E0,-3.4415126E-2,-4.4755716E0,-6.3662333E0,-1.6051717E-2,1.3545291E0,-1.6725732E0,-2.2725284E0,7.302637E-1,-2.9086508E-2,-3.6487952E-2,-5.963926E-2,-1.4466808E1,1.1514561E0,2.1161497E0,-2.3649411E-1,1.7314379E0,-2.9035034E-2,-1.1618207E0,1.8301663E0,3.6167183E-3,5.0173707E-2,5.505006E-2,3.882229E-2,5.241683E-2,6.0007315E-2,6.8916395E-2,1.1138079E1,5.9115667E-2,6.6915646E-2,5.9574634E-2,3.846625E0,1.5007601E-2,1.7039602E0,4.95291E-1,-2.8689103E0,-3.2673433E0,-1.4488864E0,-9.6851075E-3,9.945577E0,9.282738E0,8.23551E0,7.739631E0,8.869635E0,4.9077295E-2,-7.8749843E0,-9.070098E0,-2.8099842E-2,-3.465259E-2,-1.5134888E0,-2.740912E0,-2.4807021E-2,-4.1441483E0,-1.9986529E-2,-5.188499E0,-1.9796288E-2,-2.1887109E-2,-3.1082934E-2,-2.614203E-2,-4.430901E0,-5.0014544E0,-5.7383423E0,-6.1752725E0,-6.5658827E0,-6.007255E0,-5.1342053E0,-4.1086354E0,-6.5656295E0,-2.8288392E-2,1.0553437E0,1.5004524E0,-1.4546764E0,-2.488558E0,-2.5885916E0,-1.9536542E0,-8.1235754E-1,1.1011679E-2,-6.802333E-2,-7.312871E-2,7.1070897E-3,1.0353886E0,1.786605E-2,1.8824694E0,9.155901E-1,-1.3120558E-2,1.4889653E-2,1.2694116E0,-4.9147783E-3,6.2576157E-1,-1.082522E0,-1.5171723E-2,1.4607141E0,1.2329933E-2,5.8543302E-2,1.0905277E1,4.105473E0,3.6664207E0,2.1826575E0,1.4737102E0,6.8212676E-1,-6.740496E-3,-3.06255E0,-2.0257518E0,-4.086559E0,-3.1344502E0,-8.569172E-3,-5.493244E-3,9.867402E0,5.6484506E-2,3.4511786E-2,9.3547535E0,7.935946E0,8.327459E0,6.647192E0,8.010449E0,4.62517E-2,3.0996483E-2,-4.0275984E-2,-3.049706E-2,-4.9639862E-2,-3.7790924E-2,-1.0579638E-2,-4.0316167E-3,-1.8032257E-2,-8.533468E-3,-1.9283332E-2,-2.1965567E-2,-4.830916E0,-5.519863E0,-4.148662E0,-4.7058764E0,-4.7356668E0,-5.260387E0,-5.850947E0,-2.5154276E-2,-3.283251E-2,-2.8647862E-2,-6.3177605E0,-3.4943413E-2,-1.8961037E-2,-6.3495975E0,-2.310964E-2,-2.87589E-2,-1.6260207E-2,-2.3141766E-2,-2.9657919E-2,-3.3568185E-2,6.506142E-3,-4.238554E-3,1.4224804E-2,5.695376E-3,-5.7066637E-3,-8.120435E-3,-1.1140359E-2,-1.3536205E-2,-7.207155E-3,-1.574957E-2,-1.7032903E-2,-5.7648867E-3,-5.747958E-3,-3.0596354E-3,4.3078833E-3,6.508757E-3,-1.4445012E-3,1.089796E-2,1.2545513E-3,7.559375E-3,7.928365E-3,2.7042225E-3,9.610282E-3,-1.6724571E-4,-1.4279053E-2,-4.911851E-3,8.595111E-3,5.5346466E-3,5.1099543E-2,5.5653304E-2,1.8026585E-2,2.1978775E-2,1.5582335E-2,1.9023823E-2,8.259901E-3,1.234438E-2,7.6459367E-3,6.037417E-3,4.011986E-3,6.068705E-4,-1.8974632E-2,-1.4696334E-2,-2.9541983E-4,-1.3029924E-2,-1.8528514E-2,-2.198315E-2,-1.4592813E-2,-1.6059935E-2,4.5450684E-2,4.896137E-2,4.4533066E-2,4.705179E-2,3.9504625E-2,3.3261474E-2,4.501305E-2,4.0266003E-2,3.569662E-2,2.9114805E-2,4.044474E-2,3.6833417E-2,-2.6539676E-2,-2.055337E-2,-2.3596905E-2,-3.005043E-2,-1.4756583E-2,-2.1575298E-2,-2.657176E-2,-2.0572778E-2,-1.7693767E-2,-2.4177916E-2,-3.0175341E-2,-2.4749776E-2,-2.630976E-2,-2.9120915E-2,-3.185227E-2,-2.3341028E-2,-3.2708842E-2,-3.0092616E-2],"categories":[],"categories_nodes":[],"categories_segments":[],"categories_sizes":[],"default_left":[0,0,0,0,0,0,0,0,0,0,0,0,0,0,0,0,0,0,0,0,0,0,0,0,0,0,0,0,0,0,0,0,0,0,0,0,0,0,0,0,0,0,0,0,0,0,0,0,0,0,0,0,0,0,0,0,0,0,0,0,0,0,0,0,0,0,0,0,0,0,0,0,0,0,0,0,0,0,0,0,0,0,0,0,0,0,0,0,0,0,0,0,0,0,0,0,0,0,0,0,0,0,0,0,0,0,0,0,0,0,0,0,0,0,0,0,0,0,0,0,0,0,0,0,0,0,0,0,0,0,0,0,0,0,0,0,0,0,0,0,0,0,0,0,0,0,0,0,0,0,0,0,0,0,0,0,0,0,0,0,0,0,0,0,0,0,0,0,0,0,0,0,0,0,0,0,0,0,0,0,0,0,0,0,0,0,0,0,0,0,0,0,0,0,0,0,0,0,0,0,0,0,0,0,0,0,0,0,0,0,0,0,0,0,0,0,0,0,0,0,0,0,0,0,0,0,0,0,0,0,0,0,0,0,0,0,0,0,0,0,0,0,0,0,0,0,0,0,0,0,0,0,0,0,0,0,0,0,0,0,0,0,0,0,0,0,0,0,0,0,0,0,0,0,0,0,0,0,0,0,0,0,0,0,0,0,0,0,0,0,0,0,0,0,0,0,0,0,0,0,0,0,0,0,0,0,0,0,0,0,0,0,0,0,0,0,0,0,0,0,0,0,0,0,0,0,0,0,0],"id":1,"left_children":[1,3,5,7,9,11,13,15,17,19,21,-1,23,25,27,29,31,33,35,37,39,41,43,45,47,49,51,53,55,57,59,61,63,65,67,69,71,73,75,-1,77,79,81,83,85,-1,-1,87,89,91,93,95,97,99,101,103,-1,105,107,109,111,113,-1,115,-1,-1,-1,117,119,-1,121,123,-1,125,127,129,131,133,-1,135,137,139,141,143,-1,145,147,149,151,-1,-1,-1,153,-1,155,157,159,161,163,-1,-1,165,-1,-1,167,-1,169,171,-1,173,175,177,179,-1,-1,-1,181,183,185,187,189,191,193,195,-1,-1,-1,-1,-1,-1,-1,197,-1,-1,-1,199,-1,201,203,205,207,209,-1,211,213,215,217,219,-1,221,223,-1,-1,225,227,-1,229,-1,231,-1,-1,-1,-1,233,235,237,239,241,243,245,247,249,-1,251,253,255,257,259,261,263,-1,-1,-1,-1,265,-1,267,269,-1,-1,271,-1,273,275,-1,277,-1,-1,279,281,283,285,287,289,-1,291,293,295,297,-1,-1,299,-1,-1,301,303,305,307,309,-1,-1,-1,-1,-1,-1,-1,-1,-1,-1,-1,-1,311,313,315,317,319,321,323,-1,-1,-1,325,-1,-1,327,-1,-1,-1,-1,-1,-1,-1,-1,-1,-1,-1,-1,-1,-1,-1,-1,-1,-1,-1,-1,-1,-1,-1,-1,-1,-1,-1,-1,-1,-1,-1,-1,-1,-1,-1,-1,-1,-1,-1,-1,-1,-1,-1,-1,-1,-1,-1,-1,-1,-1,-1,-1,-1,-1,-1,-1,-1,-1,-1,-1,-1,-1,-1,-1,-1,-1,-1,-1,-1,-1,-1,-1,-1,-1,-1,-1,-1,-1,-1,-1,-1,-1,-1,-1],"loss_changes":[1.9007449E6,1.2890704E6,4.2665175E5,6.4651938E4,4.6858925E5,2.5743188E5,1.04049375E4,2.8081378E5,2.7081824E3,8.827625E3,7.480784E5,0E0,1.1602812E3,2.2196875E3,2.084625E3,5.4265312E4,9.754375E3,4.652705E2,2.0126362E3,1.6558125E3,1.026E3,1.0735873E5,9.363875E3,1.0680078E2,7.7009375E2,1.0349961E3,3.415E2,5.788906E2,5.80375E2,1.5536562E3,6.9631475E3,6.2574023E2,1.1884375E3,3.1714539E1,1.9303833E2,4.9451074E2,6.5508484E1,1.9642188E2,2.2255625E3,0E0,1.415625E1,8.053742E3,8.4878125E2,8.5825E2,1.095375E3,0E0,0E0,2.7670312E2,1.03671875E2,4.314038E2,2.0842773E2,1.5652734E2,3.4933594E2,1.42890625E1,2.0982812E2,4.4639062E2,0E0,1.0548867E3,1.1376875E3,7.662108E3,3.4451855E3,2.1135742E1,0E0,1.5535312E3,0E0,0E0,0E0,1.2809375E2,3.5928677E2,0E0,2.9359375E2,7.521002E1,0E0,1.0817969E2,6.896719E2,5.5365625E2,7.890625E2,5.0515625E2,0E0,1.384668E2,1.9743477E3,2.724297E2,2.172998E1,6.669375E2,0E0,3.348125E2,1.6282812E2,1.9070312E1,1.03828125E1,0E0,0E0,0E0,2.3560986E2,0E0,7.906152E1,3.5692188E2,2.315039E1,3.4243164E1,2.5419531E2,0E0,0E0,2.6054688E1,0E0,0E0,2.173125E2,0E0,2.3763086E2,2.3514844E2,0E0,7.022339E1,2.91479E2,4.550078E2,9.843347E2,0E0,0E0,0E0,2.8646875E2,4.89151E0,1.4519055E2,4.6196686E2,1.2600177E2,1.7586186E2,2.1948523E2,3.6467102E1,0E0,0E0,0E0,0E0,0E0,0E0,0E0,4.12125E2,0E0,0E0,0E0,5.2498047E1,0E0,6.471797E2,6.161655E2,4.582246E2,5.145547E2,2.3793884E1,0E0,2.4540625E2,5.75875E2,3.421875E1,7.465E2,9.8146875E2,0E0,2.1086523E2,2.542627E1,0E0,0E0,1.4070355E2,2.9659912E2,0E0,7.6601562E0,0E0,3.8783203E1,0E0,0E0,0E0,0E0,9.700781E1,9.752734E1,8.4484375E1,2.6798828E1,5.041875E2,7.9684375E2,7.891699E1,3.3001074E2,2.2414062E2,0E0,2.9637268E2,5.2321216E2,7.5476074E1,1.0829346E1,1.6230635E3,2.7124404E3,1.2654663E1,0E0,0E0,0E0,0E0,5.153305E0,0E0,2.8911243E2,4.5358788E1,0E0,0E0,3.9611908E1,0E0,1.4617516E2,1.9341577E2,0E0,7.485718E0,0E0,0E0,3.48E2,8.120508E1,8.571094E1,3.186123E2,8.404492E1,1.2384192E2,0E0,8.4427734E1,6.799595E2,5.7552734E1,8.0484375E1,0E0,0E0,1.41125E2,0E0,0E0,1.4575E2,1.13765625E2,1.4870312E2,1.9254883E2,1.94625E2,0E0,0E0,0E0,0E0,0E0,0E0,0E0,0E0,0E0,0E0,0E0,0E0,8.850098E1,1.0027246E2,2.2565723E2,2.5973242E2,2.0606836E2,1.2651953E2,3.786328E1,0E0,0E0,0E0,8.193906E2,0E0,0E0,5.9921875E0,0E0,0E0,0E0,0E0,0E0,0E0,0E0,0E0,0E0,0E0,0E0,0E0,0E0,0E0,0E0,0E0,0E0,0E0,0E0,0E0,0E0,0E0,0E0,0E0,0E0,0E0,0E0,0E0,0E0,0E0,0E0,0E0,0E0,0E0,0E0,0E0,0E0,0E0,0E0,0E0,0E0,0E0,0E0,0E0,0E0,0E0,0E0,0E0,0E0,0E0,0E0,0E0,0E0,0E0,0E0,0E0,0E0,0E0,0E0,0E0,0E0,0E0,0E0,0E0,0E0,0E0,0E0,0E0,0E0,0E0,0E0,0E0,0E0,0E0,0E0,0E0,0E0,0E0,0E0,0E0,0E0,0E0,0E0,0E0],"parents":[2147483647,0,0,1,1,2,2,3,3,4,4,5,5,6,6,7,7,8,8,9,9,10,10,12,12,13,13,14,14,15,15,16,16,17,17,18,18,19,19,20,20,21,21,22,22,23,23,24,24,25,25,26,26,27,27,28,28,29,29,30,30,31,31,32,32,33,33,34,34,35,35,36,36,37,37,38,38,40,40,41,41,42,42,43,43,44,44,47,47,48,48,49,49,50,50,51,51,52,52,53,53,54,54,55,55,57,57,58,58,59,59,60,60,61,61,63,63,67,67,68,68,70,70,71,71,73,73,74,74,75,75,76,76,77,77,79,79,80,80,81,81,82,82,83,83,85,85,86,86,87,87,88,88,92,92,94,94,95,95,96,96,97,97,98,98,101,101,104,104,106,106,107,107,109,109,110,110,111,111,112,112,116,116,117,117,118,118,119,119,120,120,121,121,122,122,123,123,131,131,135,135,137,137,138,138,139,139,140,140,141,141,143,143,144,144,145,145,146,146,147,147,149,149,150,150,153,153,154,154,156,156,158,158,163,163,164,164,165,165,166,166,167,167,168,168,169,169,170,170,171,171,173,173,174,174,175,175,176,176,177,177,178,178,179,179,184,184,186,186,187,187,190,190,192,192,193,193,195,195,198,198,199,199,200,200,201,201,202,202,203,203,205,205,206,206,207,207,208,208,211,211,214,214,215,215,216,216,217,217,218,218,231,231,232,232,233,233,234,234,235,235,236,236,237,237,241,241,244,244],"right_children":[2,4,6,8,10,12,14,16,18,20,22,-1,24,26,28,30,32,34,36,38,40,42,44,46,48,50,52,54,56,58,60,62,64,66,68,70,72,74,76,-1,78,80,82,84,86,-1,-1,88,90,92,94,96,98,100,102,104,-1,106,108,110,112,114,-1,116,-1,-1,-1,118,120,-1,122,124,-1,126,128,130,132,134,-1,136,138,140,142,144,-1,146,148,150,152,-1,-1,-1,154,-1,156,158,160,162,164,-1,-1,166,-1,-1,168,-1,170,172,-1,174,176,178,180,-1,-1,-1,182,184,186,188,190,192,194,196,-1,-1,-1,-1,-1,-1,-1,198,-1,-1,-1,200,-1,202,204,206,208,210,-1,212,214,216,218,220,-1,222,224,-1,-1,226,228,-1,230,-1,232,-1,-1,-1,-1,234,236,238,240,242,244,246,248,250,-1,252,254,256,258,260,262,264,-1,-1,-1,-1,266,-1,268,270,-1,-1,272,-1,274,276,-1,278,-1,-1,280,282,284,286,288,290,-1,292,294,296,298,-1,-1,300,-1,-1,302,304,306,308,310,-1,-1,-1,-1,-1,-1,-1,-1,-1,-1,-1,-1,312,314,316,318,320,322,324,-1,-1,-1,326,-1,-1,328,-1,-1,-1,-1,-1,-1,-1,-1,-1,-1,-1,-1,-1,-1,-1,-1,-1,-1,-1,-1,-1,-1,-1,-1,-1,-1,-1,-1,-1,-1,-1,-1,-1,-1,-1,-1,-1,-1,-1,-1,-1,-1,-1,-1,-1,-1,-1,-1,-1,-1,-1,-1,-1,-1,-1,-1,-1,-1,-1,-1,-1,-1,-1,-1,-1,-1,-1,-1,-1,-1,-1,-1,-1,-1,-1,-1,-1,-1,-1,-1,-1,-1,-1,-1],"split_conditions":[5E0,3E0,3E0,4E0,1E0,6E0,2.6E1,3E0,2.1E1,4.5E1,3E0,-1.07247405E-1,7E0,5E0,6E0,1E0,7E0,2E0,5.4E1,1E1,4.7E1,2E0,4E0,1E0,3.4E1,6E0,1.4E1,3.5E1,5.9E1,2E1,2.4E1,4E0,5.4E1,1E0,1.4E1,2.2E1,5.9E1,7E0,1.6E1,7.633704E-2,5.7E1,1.2E1,5.7E1,5.3E1,5.3E1,-5.9926767E-2,-4.7798637E-2,1.9E1,5.1E1,1E0,1E0,9E0,1.5E1,2.7E1,5E1,2.8E1,-2.1262513E-2,3E0,5.8E1,2E0,5.7E1,1E0,-4.83826E-2,1.5E1,-5.78863E-2,-5.975528E-3,-6.8786775E-4,6E0,1.7E1,-1.9800557E-2,2.7E1,5.7E1,1.2859531E-2,3E0,8E0,1.3E1,3.5E1,5.4E1,6.8889186E-2,1E1,4.9E1,2.1E1,5.9E1,2.3E1,5.1980283E-2,3.3E1,5.8E1,1.7E1,2E1,-4.387893E-2,-3.9632425E-2,-1.9461175E-2,3E0,-1.4936771E-2,2E0,7E0,1.3E1,6E0,2E1,-2.6257765E-2,-2.3417726E-2,4.7E1,-2.596194E-2,-2.5182625E-2,5.2E1,-3.4415126E-2,9E0,4.8E1,-1.6051717E-2,8E0,1.9E1,2E0,2E0,-2.9086508E-2,-3.6487952E-2,-5.963926E-2,3.4E1,3E0,7E0,1.6E1,1.8E1,2.4E1,5.3E1,5.6E1,3.6167183E-3,5.0173707E-2,5.505006E-2,3.882229E-2,5.241683E-2,6.0007315E-2,6.8916395E-2,2E1,5.9115667E-2,6.6915646E-2,5.9574634E-2,4E0,1.5007601E-2,2.4E1,5.9E1,1.7E1,2.6E1,5.8E1,-9.6851075E-3,2.2E1,2.4E1,8E0,3.7E1,5.7E1,4.9077295E-2,1.5E1,1.8E1,-2.8099842E-2,-3.465259E-2,2E0,4E0,-2.4807021E-2,4E0,-1.9986529E-2,6E0,-1.9796288E-2,-2.1887109E-2,-3.1082934E-2,-2.614203E-2,6E0,6E0,4.5E1,4.8E1,4.5E1,5.3E1,7E0,1.4E1,3.1E1,-2.8288392E-2,7E0,1.1E1,8E0,2.2E1,3.6E1,3.5E1,5.8E1,1.1011679E-2,-6.802333E-2,-7.312871E-2,7.1070897E-3,5E0,1.786605E-2,8E0,1.5E1,-1.3120558E-2,1.4889653E-2,2E1,-4.9147783E-3,2.5E1,2.8E1,-1.5171723E-2,5.5E1,1.2329933E-2,5.8543302E-2,2.8E1,2E0,6E0,1.7E1,4.2E1,5.7E1,-6.740496E-3,1E0,1.8E1,2.4E1,4.2E1,-8.569172E-3,-5.493244E-3,5E0,5.6484506E-2,3.4511786E-2,4E1,7E0,1E1,3.5E1,4.7E1,4.62517E-2,3.0996483E-2,-4.0275984E-2,-3.049706E-2,-4.9639862E-2,-3.7790924E-2,-1.0579638E-2,-4.0316167E-3,-1.8032257E-2,-8.533468E-3,-1.9283332E-2,-2.1965567E-2,8E0,8E0,1.6E1,1.7E1,2.1E1,2.1E1,3.7E1,-2.5154276E-2,-3.283251E-2,-2.8647862E-2,4.3E1,-3.4943413E-2,-1.8961037E-2,5.5E1,-2.310964E-2,-2.87589E-2,-1.6260207E-2,-2.3141766E-2,-2.9657919E-2,-3.3568185E-2,6.506142E-3,-4.238554E-3,1.4224804E-2,5.695376E-3,-5.7066637E-3,-8.120435E-3,-1.1140359E-2,-1.3536205E-2,-7.207155E-3,-1.574957E-2,-1.7032903E-2,-5.7648867E-3,-5.747958E-3,-3.0596354E-3,4.3078833E-3,6.508757E-3,-1.4445012E-3,1.089796E-2,1.2545513E-3,7.559375E-3,7.928365E-3,2.7042225E-3,9.610282E-3,-1.6724571E-4,-1.4279053E-2,-4.911851E-3,8.595111E-3,5.5346466E-3,5.1099543E-2,5.5653304E-2,1.8026585E-2,2.1978775E-2,1.5582335E-2,1.9023823E-2,8.259901E-3,1.234438E-2,7.6459367E-3,6.037417E-3,4.011986E-3,6.068705E-4,-1.8974632E-2,-1.4696334E-2,-2.9541983E-4,-1.3029924E-2,-1.8528514E-2,-2.198315E-2,-1.4592813E-2,-1.6059935E-2,4.5450684E-2,4.896137E-2,4.4533066E-2,4.705179E-2,3.9504625E-2,3.3261474E-2,4.501305E-2,4.0266003E-2,3.569662E-2,2.9114805E-2,4.044474E-2,3.6833417E-2,-2.6539676E-2,-2.055337E-2,-2.3596905E-2,-3.005043E-2,-1.4756583E-2,-2.1575298E-2,-2.657176E-2,-2.0572778E-2,-1.7693767E-2,-2.4177916E-2,-3.0175341E-2,-2.4749776E-2,-2.630976E-2,-2.9120915E-2,-3.185227E-2,-2.3341028E-2,-3.2708842E-2,-3.0092616E-2],"split_indices":[1,2,2,1,1,1,7,1,7,7,1,0,7,7,1,1,7,7,7,7,7,1,1,7,7,1,7,7,7,7,7,7,7,7,7,7,7,7,7,0,7,7,7,7,7,0,0,7,7,7,7,7,7,7,7,7,0,7,7,1,7,7,0,7,0,0,0,7,7,0,7,7,0,7,7,7,7,7,0,7,7,7,7,7,0,7,7,7,7,0,0,0,7,0,7,7,7,1,7,0,0,7,0,0,7,0,7,7,0,7,7,1,1,0,0,0,7,7,7,7,7,7,7,7,0,0,0,0,0,0,0,7,0,0,0,7,0,7,7,7,7,7,0,7,7,7,7,7,0,7,7,0,0,7,7,0,7,0,1,0,0,0,0,1,1,7,7,7,7,7,7,7,0,7,7,7,7,7,7,7,0,0,0,0,7,0,7,7,0,0,7,0,7,7,0,7,0,0,7,7,7,7,7,7,0,7,7,7,7,0,0,7,0,0,7,7,7,7,7,0,0,0,0,0,0,0,0,0,0,0,0,7,7,7,7,7,7,7,0,0,0,7,0,0,7,0,0,0,0,0,0,0,0,0,0,0,0,0,0,0,0,0,0,0,0,0,0,0,0,0,0,0,0,0,0,0,0,0,0,0,0,0,0,0,0,0,0,0,0,0,0,0,0,0,0,0,0,0,0,0,0,0,0,0,0,0,0,0,0,0,0,0,0,0,0,0,0,0,0,0,0,0,0,0,0,0,0,0,0],"split_type":[0,0,0,0,0,0,0,0,0,0,0,0,0,0,0,0,0,0,0,0,0,0,0,0,0,0,0,0,0,0,0,0,0,0,0,0,0,0,0,0,0,0,0,0,0,0,0,0,0,0,0,0,0,0,0,0,0,0,0,0,0,0,0,0,0,0,0,0,0,0,0,0,0,0,0,0,0,0,0,0,0,0,0,0,0,0,0,0,0,0,0,0,0,0,0,0,0,0,0,0,0,0,0,0,0,0,0,0,0,0,0,0,0,0,0,0,0,0,0,0,0,0,0,0,0,0,0,0,0,0,0,0,0,0,0,0,0,0,0,0,0,0,0,0,0,0,0,0,0,0,0,0,0,0,0,0,0,0,0,0,0,0,0,0,0,0,0,0,0,0,0,0,0,0,0,0,0,0,0,0,0,0,0,0,0,0,0,0,0,0,0,0,0,0,0,0,0,0,0,0,0,0,0,0,0,0,0,0,0,0,0,0,0,0,0,0,0,0,0,0,0,0,0,0,0,0,0,0,0,0,0,0,0,0,0,0,0,0,0,0,0,0,0,0,0,0,0,0,0,0,0,0,0,0,0,0,0,0,0,0,0,0,0,0,0,0,0,0,0,0,0,0,0,0,0,0,0,0,0,0,0,0,0,0,0,0,0,0,0,0,0,0,0,0,0,0,0,0,0,0,0,0,0,0,0,0,0,0,0,0,0,0,0,0,0,0,0,0,0,0,0,0,0,0,0,0,0,0,0],"sum_hessian":[8.7617E4,6.2669E4,2.4948E4,1.8776E4,4.3893E4,5.558E3,1.939E4,1.5536E4,3.24E3,9.467E3,3.4426E4,2.782E3,2.776E3,8.407E3,1.0983E4,1.2306E4,3.23E3,1.13E3,2.11E3,7.104E3,2.363E3,1.7758E4,1.6668E4,3.23E2,2.453E3,1.611E3,6.796E3,5.475E3,5.508E3,3.956E3,8.35E3,3.81E2,2.849E3,1.09E2,1.021E3,1.783E3,3.27E2,1.579E3,5.525E3,3.16E2,2.047E3,9.586E3,8.172E3,8.33E3,8.338E3,4.6E1,2.77E2,1.242E3,1.211E3,8.02E2,8.09E2,2.926E3,3.87E3,1.454E3,4.021E3,5.347E3,1.61E2,1.3E3,2.656E3,3.342E3,5.008E3,2.13E2,1.68E2,2.522E3,3.27E2,5.5E1,5.4E1,6.44E2,3.77E2,5.3E1,1.73E3,2.73E2,5.4E1,1.104E3,4.75E2,9.5E2,4.575E3,1.568E3,4.79E2,1.914E3,7.672E3,7.763E3,4.09E2,7.361E3,9.69E2,7.356E3,9.82E2,5.56E2,6.86E2,7.89E2,4.22E2,1.6E2,6.42E2,1.64E2,6.45E2,1.29E3,1.636E3,3.22E2,3.548E3,1.59E2,1.295E3,2.411E3,1.61E3,3.24E2,5.023E3,1.92E2,1.108E3,2.525E3,1.31E2,1.671E3,1.671E3,4.592E3,4.16E2,5.2E1,1.61E2,4.32E2,2.09E3,2.13E2,4.31E2,1.61E2,2.16E2,2.72E2,1.458E3,1.64E2,1.09E2,4.73E2,6.31E2,1.58E2,3.17E2,4.7E2,4.8E2,2.989E3,1.586E3,1.098E3,4.7E2,1.597E3,3.17E2,5.918E3,1.754E3,2.864E3,4.899E3,2.73E2,1.36E2,3.176E3,4.185E3,4.582E3,2.774E3,7.01E2,2.81E2,4.65E2,9.1E1,4.6E1,6.4E2,3.19E2,3.23E2,1.62E2,4.83E2,6.42E2,6.48E2,1.309E3,3.27E2,1.6E2,1.62E2,1.613E3,1.935E3,1.925E3,4.86E2,3.88E3,1.143E3,3.9E2,7.18E2,1.863E3,6.62E2,5.52E2,1.119E3,1.322E3,3.49E2,2.301E3,2.291E3,2.07E2,2.09E2,1.034E3,1.056E3,5.4E1,1.59E2,5.4E1,3.77E2,1.1E2,5.1E1,5.4E1,1.62E2,1.09E2,1.63E2,1.403E3,5.5E1,1.1E2,5.4E1,6.28E2,2.361E3,6.43E2,9.54E2,1.918E3,4E3,1.596E3,1.58E2,2.326E3,5.38E2,6.78E2,4.221E3,1.37E2,1.36E2,3.039E3,1.37E2,1.36E2,4.049E3,1.104E3,3.478E3,5.58E2,2.216E3,5.63E2,1.38E2,3.74E2,9.1E1,4.5E1,4.6E1,1.62E2,1.57E2,1.63E2,1.6E2,3.22E2,1.61E2,3.22E2,3.26E2,8.07E2,8.06E2,9.68E2,9.67E2,1.605E3,3.2E2,1.65E2,3.21E2,2.742E3,1.138E3,1.61E2,9.82E2,2.61E2,1.29E2,3.25E2,3.93E2,7.28E2,1.135E3,4.83E2,6.9E1,2.12E2,9.07E2,5.61E2,7.61E2,2.09E2,1.4E2,8.39E2,1.462E3,7.66E2,1.525E3,6.7E1,1.4E2,1.09E2,5E1,5.2E1,3.25E2,5.5E1,5.5E1,1.07E2,5.5E1,5.3E1,1.1E2,5.4E1,1.349E3,5.4E1,5.6E1,1.259E3,1.102E3,3.21E2,3.22E2,3.17E2,6.37E2,7.95E2,1.123E3,2.877E3,1.123E3,1.276E3,3.2E2,1.35E2,2.191E3,1.33E2,4.05E2,4.06E2,2.72E2,2.181E3,2.04E3,6.88E2,2.351E3,2.224E3,1.825E3,9.64E2,1.4E2,2.81E2,3.197E3,2.77E2,2.81E2,1.388E3,8.28E2,1.58E2,1.64E2,1.62E2,1.64E2,1.59E2,6.48E2,3.18E2,4.88E2,1.61E2,8.07E2,1.6E2,8.07E2,3.26E2,1.279E3,2.416E3,3.26E2,3.27E2,6.55E2],"tree_param":{"num_deleted":"0","num_feature":"8","num_nodes":"329","size_leaf_vector":"1"}},{"base_weights":[3.656264E-2,5.7200637E0,-1.838178E1,-4.146873E0,2.8012348E1,-2.757438E0,-2.781423E1,-9.163892E0,2.0980211E1,2.1635353E1,5.190287E1,4.3654167E1,-1.9779102E1,-5.164125E1,-1.8992626E1,1.6238207E1,-1.3499785E1,5.4201384E0,5.260595E1,2.754261E1,-1.5807715E1,4.1626667E1,7.232719E1,5.5142696E1,3.9268062E0,-6.3217747E1,-1.0076589E1,-4.406339E1,-7.447343E1,-4.0402344E1,-4.3598733E0,2.4707075E1,-3.00407E1,-7.121498E0,-1.7894566E1,-2.5017096E1,1.0115106E1,1.2159335E2,3.7064125E1,8.018944E0,3.32714E1,-5.083372E1,1.9110657E1,6.532021E1,1.7795893E1,1.20612206E2,6.010013E1,-5.985573E0,6.520254E1,1.6646622E-1,-6.1878424E0,-8.629137E1,-1.704932E1,-1.8490826E1,5.620052E1,-3.764573E1,-6.1306755E1,-5.4821926E1,-9.125144E1,-2.345728E1,-4.3774776E1,1.6990744E1,-1.714872E1,-2.4664719E1,2.8583258E1,-1.8054596E1,-5.4067654E1,7.045136E-1,-2.6129663E1,-2.2347422E1,7.748473E0,-2.1554604E1,-3.5005623E1,1.4722612E1,-2.9906088E1,6.10378E1,1.8069647E2,9.282593E1,2.9975695E1,-4.2805443E0,1.9842289E1,5.578217E1,1.8859705E1,-6.50347E1,1.2453187E-1,3.596384E1,-1.9700144E-1,4.773919E1,1.357099E2,3.354929E1,1.3836908E1,1.43482E2,1.5496679E-1,4.3745277E1,7.6121574E1,1.8693102E1,-3.7866753E-1,7.592002E1,4.349532E1,1.140154E1,-2.3732447E1,-1.12345146E2,-6.0356262E1,1.64106E1,-3.3850624E1,-4.283629E1,-1.035812E1,-7.101327E1,1.18933395E2,-1.1853682E1,-4.0153095E1,-4.523126E1,-9.2756065E1,-3.030834E1,-6.437384E1,-4.1175503E-1,-4.9754333E-1,-4.5040672E1,-1.1039228E1,-4.7210663E1,-3.0041937E1,7.131469E1,-1.4047264E0,-3.2898098E1,4.4619236E0,-1.5411654E-1,-1.1251348E1,1.816343E2,2.2266836E1,-2.781793E1,1.9980091E1,-1.4670032E-1,-7.081488E-1,8.111469E0,-2.0982384E1,-3.083382E1,9.878803E-1,-3.233306E1,-1.9478365E1,-9.03803E0,3.2809044E1,-2.7850061E1,-8.698529E0,-1.4673121E-1,-2.142681E-1,2.1449032E1,-7.5342865E0,-2.6683977E1,-3.2916485E1,5.937588E-1,1.9801834E-1,6.5352094E-1,1.9494481E2,7.338661E-2,1.1830194E2,1.3446814E1,5.765995E1,2.2847208E1,-3.8286835E1,3.1454988E1,-2.2015835E1,1.24031815E2,3.6954388E1,8.0871105E0,2.3874245E1,-8.600506E0,-9.036833E1,3.062733E-1,3.2791695E1,-2.5191856E1,3.0956676E1,9.4956085E1,3.198768E1,5.4824525E-1,8.281631E-1,2.9425278E1,2.3996243E-1,8.336594E0,1.9285995E1,4.0262732E-1,1.6327345E2,3.5785816E1,7.514798E1,4.6758446E1,8.312116E1,2.3621081E-1,2.6744401E0,8.503847E1,4.83537E1,4.915021E1,3.7786552E1,1.9570736E1,-2.5784753E-2,-6.942782E-2,-1.3886443E-1,-6.043524E-1,-2.7301905E-1,-2.4273088E1,-4.638186E-1,3.367392E-1,-1.8705674E-1,-2.124182E1,-2.2447819E-1,-2.7596157E1,-5.7907787E1,-1.9449102E1,2.12658E1,-1.9205262E-1,-8.6768906E1,1.7309291E2,6.2313847E1,1.3240512E-1,-3.0588854E1,-4.9888844E1,-3.5945557E1,-6.2497246E1,-2.7856798E1,-3.2000422E-1,-4.953222E-1,-9.7480334E-2,-1.9685434E-1,-3.4972438E-1,-2.556646E-1,-4.9416298E1,-1.522253E-1,-1.6576218E1,1.092388E-1,-5.4571236E1,-4.1009117E1,-9.534396E0,-4.1791344E1,1.6631776E-1,7.579354E1,2.0876326E1,-1.252591E1,-4.702286E1,2.4401615E0,6.61291E1,-1.2205181E1,4.1581385E-2,-1.4873149E-1,6.999149E-1,9.715689E-1,-5.02574E0,3.3229935E1,-3.5818714E1,-2.512389E1,3.0061406E-1,-1.0424812E-1,5.767751E-1,2.6998402E1,-3.8134758E0,-2.9646687E1,-2.5073853E1,-8.062111E1,-1.5114867E1,7.010578E-1,-2.2168497E1,-5.3157185E1,-3.091848E1,-1.1498756E1,-2.0526628E1,3.685173E1,-2.7089037E1,4.776895E1,-1.4991218E-1,-2.4822481E1,-1.1037444E-1,-1.9232279E0,8.69429E0,8.214735E1,-2.3148687E1,8.335908E0,-1.4158507E-1,-1.1833787E-1,-1.4968419E-1,-1.8869445E-1,8.2478607E-1,1.0057306E0,4.4151777E-1,6.4121497E-1,-1.2228261E0,7.08108E1,1.2170059E2,2.6003468E1,2.9225754E1,-2.9882455E0,-2.8456163E-1,-2.8392849E1,5.9585023E0,4.6148403E1,4.963076E0,-3.5746E1,1.4921634E2,6.81023E1,6.471694E1,2.0834497E1,5.910735E-1,1.5622709E1,4.034721E1,1.3483067E1,1.9463417E1,-2.6631145E1,-1.1901423E2,-5.5431843E1,1.6641058E1,4.0706245E1,7.774505E-2,-3.5414486E1,1.00826584E-1,3.4405945E1,2.1876432E-1,1.0727432E2,2.1322483E1,4.776727E1,1.7439836E-1,1.0967758E-1,1.2901241E1,1.5518641E0,2.4120506E1,1.6024374E1,1.8383505E2,5.8429575E-1,4.536498E1,2.5874594E1,9.0738274E-2,6.256868E-1,1.6382484E-2,4.3508855E-1,1.03051994E2,6.2891262E1,-1.9103737E-1,2.0988546E-1,5.9880894E1,9.7410095E1,-1.532885E-1,7.4821625E1,4.184201E1,3.3709845E-1,3.98227E1,1.4973849E-1,1.1259137E-1,7.643145E-2,3.3174355E-3,-1.8147177E-1,-8.219763E-2,-1.2325738E-1,-1.6679794E1,-2.3812968E-1,-7.796173E1,-3.2688213E1,-3.4394398E0,-3.1250975E1,3.615591E1,-8.873213E0,-3.6507574E-1,-4.746091E-1,4.2511952E-1,2.153857E2,4.4968078E-1,2.2475244E-1,-2.321115E-1,-6.745561E-2,-3.481836E1,-5.721933E1,-2.83704E1,-2.2502162E-1,-3.9052108E-1,-4.4916077E1,-1.7316836E-1,-2.5710661E-2,-2.7789044E-1,-2.1991038E-1,-7.75522E0,-2.5170923E1,-4.4559513E1,-9.430622E1,-3.771204E1,-5.7268036E1,-3.179892E1,2.794454E-1,-3.4556965E1,-5.1196087E1,9.285165E1,6.5151985E1,-1.7124896E-1,4.8002182E1,-4.744014E-1,-1.4945344E1,-2.8816755E1,-5.9272755E1,-1.9807228E1,8.188231E0,1.68534E1,8.174769E1,-1.909454E1,1.5214991E1,2.190921E-1,-6.5609775E-2,-1.12224154E-1,1.9857438E-1,-2.0564863E-1,-1.428693E-1,-1.3789685E-1,-1.144836E-1,1.64479E-1,-2.7993893E-2,3.3220544E-1,-6.3286454E-4,-7.896801E-2,6.069231E-2,-1.4945957E-1,-1.1540918E-1,-4.065192E-2,-1.3931355E-1,-8.957179E-1,9.986257E-2,2.2254827E-2,-1.0051342E-1,-1.2560947E-1,-1.956587E-2,-3.331819E-1,-1.132415E-1,-8.715202E-2,-1.642682E-1,1.3752606E-2,-7.167108E-2,-1.3651785E-1,8.811662E-2,7.4404716E-1,-1.0592346E-1,5.021242E-3,-1.7672108E-1,3.5387254E-1,-1.3156767E-1,-1.4674072E-1,-1.0624305E-1,-9.6122315E-4,-1.7315056E-2,1.4663786E-1,2.9769267E-3,2.2190309E-1,9.82045E-1,-1.4019899E-1,-3.1150518E-2,2.0933653E-1,-1.3106382E-1,-3.7384797E-2,8.633989E-2,5.5944127E-1,1.3009879E-1,3.2643557E-1,6.7682105E-1,5.5051087E-3,2.503694E-1,4.2939715E-2,2.4368487E-1,-1.1917352E-1,3.799922E-2,-6.797707E-2,-2.0824216E-1,-1.672052E-1,1.4670607E-1,1.8458807E-1,2.766865E-1,6.097215E-2,-1.2401969E-2,-1.2317645E-1,-2.2616127E-1,2.0351742E-1,8.48099E-1,4.5065302E-1,1.5486668E-1,4.2143682E-1,2.7308753E-1,3.3002827E-2,3.0999628E-1,6.0469016E-2,-1.1272388E-1,4.6726316E-2,1.35022E-1,8.075542E-2,2.55918E-1,8.801455E-2,4.3785475E-2,1.2714413E-1,6.131991E-2,-4.260703E-2,-1.7316574E-1,-2.572926E-1,-6.4255935E-1,-3.024688E-1,-1.4185196E-1,8.705856E-2,6.744567E-2,2.5058517E-1,1.4580148E-1,-2.013362E-1,-8.4135965E-2,2.209408E-1,1.383382E-1,5.671194E-1,3.8578227E-1,4.7790803E-2,2.1244141E-1,2.8342333E-1,1.3174748E-1,8.01075E-2,4.510321E-2,4.308394E-2,-2.800148E-2,1.357761E-1,9.828527E-2,6.735194E-2,8.84374E-2,7.7345705E-1,1.0139792E0,2.884165E-1,1.5097317E-1,6.177921E-2,3.1979045E-1,4.2245355E-1,5.7771343E-1,4.4465744E-1,1.6732515E-1,3.152716E-1,2.6708558E-1,4.907603E-1,4.25468E-1,3.0907404E-1,3.902027E-1,2.5150105E-1,1.12777695E-1,1.7225292E-1,2.3554383E-1,-1.4098433E-1,4.2619623E-2,-3.1131443E-1,-4.7835508E-1,-1.8884674E-1,-1.4892535E-1,-6.248131E-2,7.2875984E-2,-3.5256617E-2,-2.6933935E-1,1.0529342E-2,2.3181634E-1,1.8475136E-2,-1.0626984E-1,1.2824954E0,8.059127E-1,-1.681161E-2,-2.4622785E-1,-4.142799E-1,-2.1089755E-1,-1.6790071E-1,-1.09248795E-1,-1.739776E-1,-2.60622E-1,-1.24482855E-1,7.857264E-3,-5.8211416E-2,-1.5397666E-1,-3.0633202E-1,-1.8681562E-1,-3.7364852E-1,-4.872527E-1,-2.0773745E-1,-1.6017003E-1,-1.3997293E-1,-3.2427028E-1,-2.2620012E-1,-1.1738439E-1,-1.7788514E-1,-1.3643788E-1,-2.9659876E-1,-1.5059969E-1,4.7712E-1,3.9384204E-1,3.4433463E-1,2.7573442E-1,3.4937483E-1,1.1703683E-1,-7.041087E-2,1.3352634E-1,-5.14913E-2,-1.1488539E-1,-6.332007E-2,-2.5763676E-1,-3.3592904E-1,-9.634728E-2,-2.9658726E-1,1.05236545E-1,7.418297E-2,4.957543E-3,1.07720576E-1,-7.250956E-3,2.5030118E-1,4.463468E-1,5.874449E-2,-1.438564E-1,-1.07923E-1,1.378493E-1],"categories":[],"categories_nodes":[],"categories_segments":[],"categories_sizes":[],"default_left":[0,0,0,0,0,0,0,0,0,0,0,0,0,0,0,0,0,0,0,0,0,0,0,0,0,0,0,0,0,0,0,0,0,0,0,0,0,0,0,0,0,0,0,0,0,0,0,0,0,0,0,0,0,0,0,0,0,0,0,0,0,0,0,0,0,0,0,0,0,0,0,0,0,0,0,0,0,0,0,0,0,0,0,0,0,0,0,0,0,0,0,0,0,0,0,0,0,0,0,0,0,0,0,0,0,0,0,0,0,0,0,0,0,0,0,0,0,0,0,0,0,0,0,0,0,0,0,0,0,0,0,0,0,0,0,0,0,0,0,0,0,0,0,0,0,0,0,0,0,0,0,0,0,0,0,0,0,0,0,0,0,0,0,0,0,0,0,0,0,0,0,0,0,0,0,0,0,0,0,0,0,0,0,0,0,0,0,0,0,0,0,0,0,0,0,0,0,0,0,0,0,0,0,0,0,0,0,0,0,0,0,0,0,0,0,0,0,0,0,0,0,0,0,0,0,0,0,0,0,0,0,0,0,0,0,0,0,0,0,0,0,0,0,0,0,0,0,0,0,0,0,0,0,0,0,0,0,0,0,0,0,0,0,0,0,0,0,0,0,0,0,0,0,0,0,0,0,0,0,0,0,0,0,0,0,0,0,0,0,0,0,0,0,0,0,0,0,0,0,0,0,0,0,0,0,0,0,0,0,0,0,0,0,0,0,0,0,0,0,0,0,0,0,0,0,0,0,0,0,0,0,0,0,0,0,0,0,0,0,0,0,0,0,0,0,0,0,0,0,0,0,0,0,0,0,0,0,0,0,0,0,0,0,0,0,0,0,0,0,0,0,0,0,0,0,0,0,0,0,0,0,0,0,0,0,0,0,0,0,0,0,0,0,0,0,0,0,0,0,0,0,0,0,0,0,0,0,0,0,0,0,0,0,0,0,0,0,0,0,0,0,0,0,0,0,0,0,0,0,0,0,0,0,0,0,0,0,0,0,0,0,0,0,0,0,0,0,0,0,0,0,0,0,0,0,0,0,0,0,0,0,0,0,0,0,0,0,0,0,0,0,0,0,0,0,0,0,0,0,0,0,0,0,0,0,0,0,0,0,0,0,0,0,0,0,0,0,0,0,0,0,0,0,0,0,0,0,0,0,0,0,0,0,0,0,0,0,0,0,0,0,0,0,0,0,0,0,0,0,0,0,0,0,0,0,0,0,0,0,0,0,0,0,0,0,0,0,0,0,0,0,0,0,0,0,0,0,0,0,0,0,0,0,0,0,0,0,0,0,0,0,0,0,0,0,0,0,0,0,0,0,0,0,0,0,0,0,0,0,0,0,0,0,0,0,0,0,0,0,0,0,0,0],"id":2,"left_children":[1,3,5,7,9,11,13,15,17,19,21,23,25,27,29,31,33,35,37,39,41,43,45,47,49,51,53,55,57,59,61,63,65,67,69,71,73,75,77,79,81,83,85,87,89,91,93,95,97,-1,99,101,103,105,107,109,111,113,115,117,119,121,123,125,127,129,131,133,135,137,139,141,143,145,147,149,151,153,155,157,159,161,163,165,-1,167,169,171,173,175,177,179,-1,181,183,185,-1,187,189,191,193,195,197,199,201,203,205,207,209,211,213,215,217,219,221,-1,-1,223,225,227,229,231,233,235,237,-1,239,241,243,245,247,-1,-1,249,251,253,255,257,259,261,263,265,267,-1,-1,269,271,273,275,-1,-1,-1,277,-1,279,281,283,285,287,289,291,293,295,297,299,301,303,-1,305,307,309,311,313,-1,-1,315,-1,317,319,-1,321,323,325,327,329,-1,331,333,335,337,339,341,-1,-1,-1,-1,-1,343,-1,-1,-1,345,-1,347,349,351,353,-1,355,357,359,-1,361,363,365,367,369,-1,-1,-1,-1,-1,-1,371,-1,373,-1,375,377,379,381,-1,383,385,387,389,391,393,395,-1,-1,-1,-1,397,399,401,403,-1,-1,405,407,409,411,413,415,417,-1,419,421,423,425,427,429,431,433,-1,435,-1,437,439,441,443,445,-1,-1,-1,-1,-1,-1,-1,-1,447,449,451,453,455,457,-1,459,461,463,465,467,469,471,473,475,477,479,481,483,485,487,489,491,493,495,-1,497,-1,499,-1,501,503,505,-1,-1,507,509,511,513,515,-1,517,519,-1,-1,-1,-1,521,523,-1,-1,525,527,-1,529,531,-1,533,-1,-1,-1,-1,-1,-1,-1,535,-1,537,539,541,543,545,547,-1,-1,-1,549,-1,-1,-1,-1,551,553,555,-1,-1,557,-1,-1,-1,-1,559,561,563,565,567,569,571,-1,573,575,577,579,-1,581,583,585,587,589,591,593,595,597,599,601,-1,-1,-1,-1,-1,-1,-1,-1,-1,-1,-1,-1,-1,-1,-1,-1,-1,-1,-1,-1,-1,-1,-1,-1,-1,-1,-1,-1,-1,-1,-1,-1,-1,-1,-1,-1,-1,-1,-1,-1,-1,-1,-1,-1,-1,-1,-1,-1,-1,-1,-1,-1,-1,-1,-1,-1,-1,-1,-1,-1,-1,-1,-1,-1,-1,-1,-1,-1,-1,-1,-1,-1,-1,-1,-1,-1,-1,-1,-1,-1,-1,-1,-1,-1,-1,-1,-1,-1,-1,-1,-1,-1,-1,-1,-1,-1,-1,-1,-1,-1,-1,-1,-1,-1,-1,-1,-1,-1,-1,-1,-1,-1,-1,-1,-1,-1,-1,-1,-1,-1,-1,-1,-1,-1,-1,-1,-1,-1,-1,-1,-1,-1,-1,-1,-1,-1,-1,-1,-1,-1,-1,-1,-1,-1,-1,-1,-1,-1,-1,-1,-1,-1,-1,-1,-1,-1,-1,-1,-1,-1,-1,-1,-1,-1,-1,-1,-1,-1,-1,-1,-1,-1,-1,-1,-1,-1,-1,-1,-1,-1,-1,-1,-1,-1,-1,-1,-1,-1,-1,-1,-1,-1,-1,-1,-1,-1,-1,-1,-1,-1,-1,-1,-1,-1,-1,-1],"loss_changes":[9.18255E6,1.4744801E7,3.048407E6,5.858191E6,3.131917E6,6.1539385E6,2.709812E6,4.26663E6,3.8056595E6,3.5918265E6,9.05265E5,9.537405E5,2.4011965E6,5.9847E5,2.949417E6,2.2147315E6,9.273285E5,7.413243E5,2.7284135E6,1.568214E6,2.708309E6,1.6275935E6,8.45403E5,9.975535E5,1.4376825E5,1.1062525E6,2.600299E6,2.867715E5,2.789635E5,2.170505E5,1.527916E6,9.1481E5,2.5048256E5,2.0083145E6,2.237036E6,2.2962656E4,8.2914E5,1.661455E6,8.19739E5,4.630397E5,3.516033E6,1.2004102E6,3.6098888E5,1.7812175E6,8.920097E4,5.860785E5,2.990645E5,4.0866878E5,3.195075E5,0E0,1.0939845E5,4.59444E5,1.9656056E5,8.18367E5,4.20358E6,1.23025E5,3.52501E5,9.1591625E4,2.286425E4,1.7014394E5,1.48443E5,2.0950412E6,1.191213E6,3.1728188E4,4.275597E6,2.1809778E5,6.2856625E5,1.5365774E6,5.023145E5,4.77347E5,1.2200865E6,4.1619516E4,5.9878438E3,6.035952E5,3.3226562E3,2.8287312E5,1.231365E5,4.6203938E5,8.456429E5,1.4415106E6,7.899973E5,5.431087E6,3.569305E5,1.3318742E6,0E0,4.7512438E4,4.046445E5,8.5817075E5,2.0365E5,1.6596281E4,3.434642E4,2.615115E5,0E0,1.4045462E5,1.147E5,8.173445E4,0E0,2.283575E5,1.24700625E4,2.4306074E4,7.3881094E3,2.12496E5,4.3454938E5,3.4081928E5,3.417953E4,2.3566275E5,8.924437E5,8.2469375E4,1.066033E6,1.26177445E5,6.89695E4,1.3905812E5,4.7413E4,1.0851617E4,2.008625E4,0E0,0E0,1.20338125E4,7.565324E4,1.13237E5,1.5398625E5,8.504175E4,3.887152E5,1.0105955E6,1.5184734E6,0E0,4.6026168E4,7.8391E4,1.2731715E6,8.841156E3,2.085085E5,0E0,0E0,1.01466925E6,3.62112E5,9.59507E5,1.3420899E6,7.86526E5,1.183456E6,9.169334E5,1.044144E6,1.9688125E3,1.6168517E4,0E0,0E0,2.395403E6,2.3228506E5,3.6301562E2,1.4480156E3,0E0,0E0,0E0,4.8615E3,0E0,4.81305E4,9.7655894E5,1.3972898E6,1.4338156E5,1.3486406E5,4.7589888E5,1.3112464E5,1.274344E6,1.483236E6,1.187378E5,7.714835E5,1.4759794E5,6.35034E5,0E0,6.7130625E4,1.21928734E5,7.2693906E3,1.7235125E5,1.4526794E5,0E0,0E0,9.051328E3,0E0,1.7818336E4,8.595703E3,0E0,1.26215E5,4.23175E4,3.423985E5,2.1149439E5,1.805895E5,0E0,1.9312586E5,2.092555E5,4.9770438E5,2.9308438E4,1.7893438E3,1.1408398E3,0E0,0E0,0E0,0E0,0E0,5.577978E4,0E0,0E0,0E0,1.4760195E3,0E0,1.18435875E5,2.5923975E5,4.552648E5,3.115793E5,0E0,4.7464375E3,6.275925E5,7.888019E4,0E0,3.2172734E4,5.503575E4,9.199025E4,6.7483E4,4.0507734E4,0E0,0E0,0E0,0E0,0E0,0E0,2.2967188E3,0E0,2.6216E4,0E0,4.5598425E5,7.147975E4,3.521765E5,2.5343375E4,0E0,7.767125E4,7.948734E5,3.0495047E4,3.2027425E5,7.429607E4,2.4005688E5,2.2014748E5,0E0,0E0,0E0,0E0,5.1276566E5,1.2693692E6,3.0678125E3,9.570156E2,0E0,0E0,1.0650892E6,2.263141E6,1.6450328E5,8.354625E3,1.7375775E5,3.6136478E6,5.663118E4,0E0,1.61451E5,5.48978E5,1.88582E5,3.4767356E5,3.9902625E5,2.3598358E6,5.9749844E4,1.7208282E6,0E0,1.9288203E3,0E0,3.2669318E2,4.4137838E5,2.3339522E6,4.3789203E4,5.6670606E5,0E0,0E0,0E0,0E0,0E0,0E0,0E0,0E0,1.1269046E5,4.5257288E5,1.9924675E5,2.9173994E5,2.9397575E5,4.0230605E4,0E0,9.5368625E4,4.5280012E5,6.789E4,6.8356665E3,2.4483531E4,1.645143E6,2.480145E5,2.24842E5,1.2607911E6,2.9496547E5,7.596897E4,4.9963275E5,5.654753E4,4.7455195E3,2.7610336E4,2.84366E5,4.7764125E4,2.6011328E2,3.8953188E4,0E0,2.3498938E4,0E0,9.564609E3,0E0,4.57055E4,1.3306852E5,7.269575E4,0E0,0E0,4.212629E3,1.2427623E4,2.6328906E3,1.2862969E3,2.61345E4,0E0,4.3725844E4,1.19523875E5,0E0,0E0,0E0,0E0,4.54835E4,1.8635881E5,0E0,0E0,9.4775E2,3.0955E3,0E0,3.58425E3,2.9244656E4,0E0,4.5827812E3,0E0,0E0,0E0,0E0,0E0,0E0,0E0,1.0667132E5,0E0,7.3601E4,1.4640938E3,1.7621203E5,7.963419E5,1.7845962E5,3.768368E4,0E0,0E0,0E0,2.262135E5,0E0,0E0,0E0,0E0,8.5094125E4,1.30474E5,2.4291438E4,0E0,0E0,6.902078E3,0E0,0E0,0E0,0E0,2.9012549E4,1.4347906E4,1.03245125E5,1.2435625E4,2.55775E4,5.7888E4,1.8489922E4,0E0,1.5310938E3,3.13435E4,5.2125E1,8.43425E3,0E0,1.9705206E5,6.891188E4,3.2566219E4,2.20806E5,3.2304875E5,2.0371323E5,2.3146969E4,7.4295293E3,6.388875E4,3.0054612E5,1.1461009E5,0E0,0E0,0E0,0E0,0E0,0E0,0E0,0E0,0E0,0E0,0E0,0E0,0E0,0E0,0E0,0E0,0E0,0E0,0E0,0E0,0E0,0E0,0E0,0E0,0E0,0E0,0E0,0E0,0E0,0E0,0E0,0E0,0E0,0E0,0E0,0E0,0E0,0E0,0E0,0E0,0E0,0E0,0E0,0E0,0E0,0E0,0E0,0E0,0E0,0E0,0E0,0E0,0E0,0E0,0E0,0E0,0E0,0E0,0E0,0E0,0E0,0E0,0E0,0E0,0E0,0E0,0E0,0E0,0E0,0E0,0E0,0E0,0E0,0E0,0E0,0E0,0E0,0E0,0E0,0E0,0E0,0E0,0E0,0E0,0E0,0E0,0E0,0E0,0E0,0E0,0E0,0E0,0E0,0E0,0E0,0E0,0E0,0E0,0E0,0E0,0E0,0E0,0E0,0E0,0E0,0E0,0E0,0E0,0E0,0E0,0E0,0E0,0E0,0E0,0E0,0E0,0E0,0E0,0E0,0E0,0E0,0E0,0E0,0E0,0E0,0E0,0E0,0E0,0E0,0E0,0E0,0E0,0E0,0E0,0E0,0E0,0E0,0E0,0E0,0E0,0E0,0E0,0E0,0E0,0E0,0E0,0E0,0E0,0E0,0E0,0E0,0E0,0E0,0E0,0E0,0E0,0E0,0E0,0E0,0E0,0E0,0E0,0E0,0E0,0E0,0E0,0E0,0E0,0E0,0E0,0E0,0E0,0E0,0E0,0E0,0E0,0E0,0E0,0E0,0E0,0E0,0E0,0E0,0E0,0E0,0E0,0E0,0E0,0E0,0E0,0E0,0E0,0E0,0E0,0E0,0E0,0E0,0E0,0E0,0E0,0E0,0E0,0E0,0E0,0E0,0E0],"parents":[2147483647,0,0,1,1,2,2,3,3,4,4,5,5,6,6,7,7,8,8,9,9,10,10,11,11,12,12,13,13,14,14,15,15,16,16,17,17,18,18,19,19,20,20,21,21,22,22,23,23,24,24,25,25,26,26,27,27,28,28,29,29,30,30,31,31,32,32,33,33,34,34,35,35,36,36,37,37,38,38,39,39,40,40,41,41,42,42,43,43,44,44,45,45,46,46,47,47,48,48,50,50,51,51,52,52,53,53,54,54,55,55,56,56,57,57,58,58,59,59,60,60,61,61,62,62,63,63,64,64,65,65,66,66,67,67,68,68,69,69,70,70,71,71,72,72,73,73,74,74,75,75,76,76,77,77,78,78,79,79,80,80,81,81,82,82,83,83,85,85,86,86,87,87,88,88,89,89,90,90,91,91,93,93,94,94,95,95,97,97,98,98,99,99,100,100,101,101,102,102,103,103,104,104,105,105,106,106,107,107,108,108,109,109,110,110,111,111,112,112,113,113,114,114,117,117,118,118,119,119,120,120,121,121,122,122,123,123,124,124,126,126,127,127,128,128,129,129,130,130,133,133,134,134,135,135,136,136,137,137,138,138,139,139,140,140,141,141,142,142,145,145,146,146,147,147,148,148,152,152,154,154,155,155,156,156,157,157,158,158,159,159,160,160,161,161,162,162,163,163,164,164,165,165,166,166,168,168,169,169,170,170,171,171,172,172,175,175,177,177,178,178,180,180,181,181,182,182,183,183,184,184,186,186,187,187,188,188,189,189,190,190,191,191,197,197,201,201,203,203,204,204,205,205,206,206,208,208,209,209,210,210,212,212,213,213,214,214,215,215,216,216,223,223,225,225,227,227,228,228,229,229,230,230,232,232,233,233,234,234,235,235,236,236,237,237,238,238,243,243,244,244,245,245,246,246,249,249,250,250,251,251,252,252,253,253,254,254,255,255,257,257,258,258,259,259,260,260,261,261,262,262,263,263,264,264,266,266,268,268,269,269,270,270,271,271,272,272,281,281,282,282,283,283,284,284,285,285,286,286,288,288,289,289,290,290,291,291,292,292,293,293,294,294,295,295,296,296,297,297,298,298,299,299,300,300,301,301,302,302,303,303,304,304,305,305,306,306,308,308,310,310,312,312,313,313,314,314,317,317,318,318,319,319,320,320,321,321,323,323,324,324,329,329,330,330,333,333,334,334,336,336,337,337,339,339,347,347,349,349,350,350,351,351,352,352,353,353,354,354,358,358,363,363,364,364,365,365,368,368,373,373,374,374,375,375,376,376,377,377,378,378,379,379,381,381,382,382,383,383,384,384,386,386,387,387,388,388,389,389,390,390,391,391,392,392,393,393,394,394,395,395,396,396],"right_children":[2,4,6,8,10,12,14,16,18,20,22,24,26,28,30,32,34,36,38,40,42,44,46,48,50,52,54,56,58,60,62,64,66,68,70,72,74,76,78,80,82,84,86,88,90,92,94,96,98,-1,100,102,104,106,108,110,112,114,116,118,120,122,124,126,128,130,132,134,136,138,140,142,144,146,148,150,152,154,156,158,160,162,164,166,-1,168,170,172,174,176,178,180,-1,182,184,186,-1,188,190,192,194,196,198,200,202,204,206,208,210,212,214,216,218,220,222,-1,-1,224,226,228,230,232,234,236,238,-1,240,242,244,246,248,-1,-1,250,252,254,256,258,260,262,264,266,268,-1,-1,270,272,274,276,-1,-1,-1,278,-1,280,282,284,286,288,290,292,294,296,298,300,302,304,-1,306,308,310,312,314,-1,-1,316,-1,318,320,-1,322,324,326,328,330,-1,332,334,336,338,340,342,-1,-1,-1,-1,-1,344,-1,-1,-1,346,-1,348,350,352,354,-1,356,358,360,-1,362,364,366,368,370,-1,-1,-1,-1,-1,-1,372,-1,374,-1,376,378,380,382,-1,384,386,388,390,392,394,396,-1,-1,-1,-1,398,400,402,404,-1,-1,406,408,410,412,414,416,418,-1,420,422,424,426,428,430,432,434,-1,436,-1,438,440,442,444,446,-1,-1,-1,-1,-1,-1,-1,-1,448,450,452,454,456,458,-1,460,462,464,466,468,470,472,474,476,478,480,482,484,486,488,490,492,494,496,-1,498,-1,500,-1,502,504,506,-1,-1,508,510,512,514,516,-1,518,520,-1,-1,-1,-1,522,524,-1,-1,526,528,-1,530,532,-1,534,-1,-1,-1,-1,-1,-1,-1,536,-1,538,540,542,544,546,548,-1,-1,-1,550,-1,-1,-1,-1,552,554,556,-1,-1,558,-1,-1,-1,-1,560,562,564,566,568,570,572,-1,574,576,578,580,-1,582,584,586,588,590,592,594,596,598,600,602,-1,-1,-1,-1,-1,-1,-1,-1,-1,-1,-1,-1,-1,-1,-1,-1,-1,-1,-1,-1,-1,-1,-1,-1,-1,-1,-1,-1,-1,-1,-1,-1,-1,-1,-1,-1,-1,-1,-1,-1,-1,-1,-1,-1,-1,-1,-1,-1,-1,-1,-1,-1,-1,-1,-1,-1,-1,-1,-1,-1,-1,-1,-1,-1,-1,-1,-1,-1,-1,-1,-1,-1,-1,-1,-1,-1,-1,-1,-1,-1,-1,-1,-1,-1,-1,-1,-1,-1,-1,-1,-1,-1,-1,-1,-1,-1,-1,-1,-1,-1,-1,-1,-1,-1,-1,-1,-1,-1,-1,-1,-1,-1,-1,-1,-1,-1,-1,-1,-1,-1,-1,-1,-1,-1,-1,-1,-1,-1,-1,-1,-1,-1,-1,-1,-1,-1,-1,-1,-1,-1,-1,-1,-1,-1,-1,-1,-1,-1,-1,-1,-1,-1,-1,-1,-1,-1,-1,-1,-1,-1,-1,-1,-1,-1,-1,-1,-1,-1,-1,-1,-1,-1,-1,-1,-1,-1,-1,-1,-1,-1,-1,-1,-1,-1,-1,-1,-1,-1,-1,-1,-1,-1,-1,-1,-1,-1,-1,-1,-1,-1,-1,-1,-1,-1,-1,-1],"split_conditions":[2.13E2,1.98E2,9E0,2E1,1.9E1,2.17E2,2.17E2,3E0,1.87E2,6E0,2.08E2,7E0,2.19E2,4E0,1.5E1,6E0,1E1,1.63E2,1.89E2,2.01E2,2.05E2,2.03E2,2.09E2,1E0,2E0,6E0,6E0,2E1,1.6E1,1E1,2.21E2,1.64E2,2E0,1.88E2,6E0,2.3E1,1.85E2,4E0,1E0,9E0,2.06E2,1.6E1,1E1,4E0,2.04E2,2.3E1,2.11E2,4E0,5E0,1.6646622E-1,8E0,6E0,7E0,1E0,3E0,1E1,3E0,1.1E1,2.1E1,2.21E2,1.4E1,1E0,2E1,2E0,1.65E2,1.91E2,1.91E2,5E0,9E0,1.68E2,1.6E1,6E0,6E0,5E0,2E0,2.1E1,2.1E1,2.1E1,1.95E2,5E0,1.7E1,1E0,6E0,5E0,1.2453187E-1,1E0,1.5E1,1E0,2.2E1,2.3E1,2E0,2E1,1.5496679E-1,2.3E1,2E1,2E0,-3.7866753E-1,4E0,6E0,4E0,3E0,5E0,3E0,6E0,8E0,2.2E2,7E0,1E0,6E0,2E0,1.3E1,2E0,2.1E1,1E1,1.4E1,-4.1175503E-1,-4.9754333E-1,6E0,6E0,3E0,2.21E2,1.6E1,1.8E1,5E0,2.23E2,-1.5411654E-1,1E0,1E0,1.73E2,1.63E2,1E0,-1.4670032E-1,-7.081488E-1,1.81E2,1.63E2,1.97E2,1.97E2,1.7E1,1.4E1,1.91E2,1.63E2,5E0,2.1E1,-1.4673121E-1,-2.142681E-1,1.8E2,6E0,2.2E1,2.3E1,5.937588E-1,1.9801834E-1,6.5352094E-1,2.2E1,7.338661E-2,2.2E1,6E0,5E0,4E0,1E0,1E0,1E0,1.4E1,7E0,2.09E2,1.1E1,2E0,1.1E1,3.062733E-1,4E0,1.1E1,1.6E1,2E1,2.2E1,5.4824525E-1,8.281631E-1,2.1E1,2.3996243E-1,2.2E1,2.1E1,4.0262732E-1,2.2E1,5E0,5E0,1E0,2.2E1,2.3621081E-1,3E0,2E0,2E0,4E0,4E0,3E0,-2.5784753E-2,-6.942782E-2,-1.3886443E-1,-6.043524E-1,-2.7301905E-1,1E0,-4.638186E-1,3.367392E-1,-1.8705674E-1,6E0,-2.2447819E-1,6E0,5E0,3E0,2.24E2,-1.9205262E-1,2E0,4E0,7E0,1.3240512E-1,3E0,1.1E1,1.7E1,2.2E1,2.3E1,-3.2000422E-1,-4.953222E-1,-9.7480334E-2,-1.9685434E-1,-3.4972438E-1,-2.556646E-1,1E0,-1.522253E-1,2.24E2,1.092388E-1,2E0,2.25E2,2.2E2,4E0,1.6631776E-1,1.9E1,2.18E2,1.9E1,1.7E1,1.6E1,3E0,2.27E2,4.1581385E-2,-1.4873149E-1,6.999149E-1,9.715689E-1,1E0,1E0,1E0,1.7E2,3.0061406E-1,-1.0424812E-1,1.65E2,1.85E2,7E0,9E0,4E0,6E0,1.9E2,7.010578E-1,1.67E2,1.9E1,1E0,1.73E2,1.5E1,1.2E1,1.7E1,1.91E2,-1.4991218E-1,2.1E1,-1.1037444E-1,2.2E1,1.66E2,2.3E1,2.3E1,1.7E2,-1.4158507E-1,-1.1833787E-1,-1.4968419E-1,-1.8869445E-1,8.2478607E-1,1.0057306E0,4.4151777E-1,6.4121497E-1,1.94E2,2.2E1,2.1E1,2.2E1,2E0,1E0,-2.8456163E-1,2E0,1.2E1,1.4E1,1.8E1,1.8E1,2E0,1.7E1,2E0,1.6E1,3E0,4E0,2E0,2.09E2,1E0,3E0,6E0,1.5E1,3E0,7E0,7.774505E-2,1.4E1,1.00826584E-1,1.7E1,2.1876432E-1,2.3E1,3E0,3E0,1.7439836E-1,1.0967758E-1,1E0,1E0,3E0,3E0,2.1E1,5.8429575E-1,2.1E1,2.2E1,9.0738274E-2,6.256868E-1,1.6382484E-2,4.3508855E-1,1E0,1E0,-1.9103737E-1,2.0988546E-1,3E0,4E0,-1.532885E-1,3E0,3E0,3.3709845E-1,3E0,1.4973849E-1,1.1259137E-1,7.643145E-2,3.3174355E-3,-1.8147177E-1,-8.219763E-2,-1.2325738E-1,4E0,-2.3812968E-1,3E0,6E0,4E0,3E0,2E0,8E0,-3.6507574E-1,-4.746091E-1,4.2511952E-1,5E0,4.4968078E-1,2.2475244E-1,-2.321115E-1,-6.745561E-2,2E0,2E0,1.5E1,-2.2502162E-1,-3.9052108E-1,2.3E1,-1.7316836E-1,-2.5710661E-2,-2.7789044E-1,-2.1991038E-1,3E0,1E0,2.2E2,1.1E1,1.2E1,1.1E1,1E0,2.794454E-1,3E0,6E0,1.8E1,2.2E1,-1.7124896E-1,2E0,6E0,6E0,3E0,4E0,6E0,1.8E1,2.1E1,2.1E1,2.24E2,2.1E1,2.190921E-1,-6.5609775E-2,-1.12224154E-1,1.9857438E-1,-2.0564863E-1,-1.428693E-1,-1.3789685E-1,-1.144836E-1,1.64479E-1,-2.7993893E-2,3.3220544E-1,-6.3286454E-4,-7.896801E-2,6.069231E-2,-1.4945957E-1,-1.1540918E-1,-4.065192E-2,-1.3931355E-1,-8.957179E-1,9.986257E-2,2.2254827E-2,-1.0051342E-1,-1.2560947E-1,-1.956587E-2,-3.331819E-1,-1.132415E-1,-8.715202E-2,-1.642682E-1,1.3752606E-2,-7.167108E-2,-1.3651785E-1,8.811662E-2,7.4404716E-1,-1.0592346E-1,5.021242E-3,-1.7672108E-1,3.5387254E-1,-1.3156767E-1,-1.4674072E-1,-1.0624305E-1,-9.6122315E-4,-1.7315056E-2,1.4663786E-1,2.9769267E-3,2.2190309E-1,9.82045E-1,-1.4019899E-1,-3.1150518E-2,2.0933653E-1,-1.3106382E-1,-3.7384797E-2,8.633989E-2,5.5944127E-1,1.3009879E-1,3.2643557E-1,6.7682105E-1,5.5051087E-3,2.503694E-1,4.2939715E-2,2.4368487E-1,-1.1917352E-1,3.799922E-2,-6.797707E-2,-2.0824216E-1,-1.672052E-1,1.4670607E-1,1.8458807E-1,2.766865E-1,6.097215E-2,-1.2401969E-2,-1.2317645E-1,-2.2616127E-1,2.0351742E-1,8.48099E-1,4.5065302E-1,1.5486668E-1,4.2143682E-1,2.7308753E-1,3.3002827E-2,3.0999628E-1,6.0469016E-2,-1.1272388E-1,4.6726316E-2,1.35022E-1,8.075542E-2,2.55918E-1,8.801455E-2,4.3785475E-2,1.2714413E-1,6.131991E-2,-4.260703E-2,-1.7316574E-1,-2.572926E-1,-6.4255935E-1,-3.024688E-1,-1.4185196E-1,8.705856E-2,6.744567E-2,2.5058517E-1,1.4580148E-1,-2.013362E-1,-8.4135965E-2,2.209408E-1,1.383382E-1,5.671194E-1,3.8578227E-1,4.7790803E-2,2.1244141E-1,2.8342333E-1,1.3174748E-1,8.01075E-2,4.510321E-2,4.308394E-2,-2.800148E-2,1.357761E-1,9.828527E-2,6.735194E-2,8.84374E-2,7.7345705E-1,1.0139792E0,2.884165E-1,1.5097317E-1,6.177921E-2,3.1979045E-1,4.2245355E-1,5.7771343E-1,4.4465744E-1,1.6732515E-1,3.152716E-1,2.6708558E-1,4.907603E-1,4.25468E-1,3.0907404E-1,3.902027E-1,2.5150105E-1,1.12777695E-1,1.7225292E-1,2.3554383E-1,-1.4098433E-1,4.2619623E-2,-3.1131443E-1,-4.7835508E-1,-1.8884674E-1,-1.4892535E-1,-6.248131E-2,7.2875984E-2,-3.5256617E-2,-2.6933935E-1,1.0529342E-2,2.3181634E-1,1.8475136E-2,-1.0626984E-1,1.2824954E0,8.059127E-1,-1.681161E-2,-2.4622785E-1,-4.142799E-1,-2.1089755E-1,-1.6790071E-1,-1.09248795E-1,-1.739776E-1,-2.60622E-1,-1.24482855E-1,7.857264E-3,-5.8211416E-2,-1.5397666E-1,-3.0633202E-1,-1.8681562E-1,-3.7364852E-1,-4.872527E-1,-2.0773745E-1,-1.6017003E-1,-1.3997293E-1,-3.2427028E-1,-2.2620012E-1,-1.1738439E-1,-1.7788514E-1,-1.3643788E-1,-2.9659876E-1,-1.5059969E-1,4.7712E-1,3.9384204E-1,3.4433463E-1,2.7573442E-1,3.4937483E-1,1.1703683E-1,-7.041087E-2,1.3352634E-1,-5.14913E-2,-1.1488539E-1,-6.332007E-2,-2.5763676E-1,-3.3592904E-1,-9.634728E-2,-2.9658726E-1,1.05236545E-1,7.418297E-2,4.957543E-3,1.07720576E-1,-7.250956E-3,2.5030118E-1,4.463468E-1,5.874449E-2,-1.438564E-1,-1.07923E-1,1.378493E-1],"split_indices":[5,5,6,6,6,5,5,6,5,1,5,6,5,1,6,1,6,5,5,5,5,5,5,6,1,6,1,6,6,6,5,5,6,5,1,6,5,1,1,6,5,6,6,1,5,6,5,1,6,0,6,1,6,1,6,6,1,6,6,5,6,1,6,6,5,5,5,1,6,5,6,1,1,1,1,6,6,6,5,6,6,1,6,6,0,6,6,1,6,6,1,6,0,6,6,1,0,1,6,1,1,6,6,1,6,5,6,6,6,1,6,1,6,6,6,0,0,1,1,1,5,6,6,1,5,0,1,6,5,5,6,0,0,5,5,5,5,6,6,5,5,1,6,0,0,5,1,6,6,0,0,0,6,0,6,1,1,6,1,1,1,6,6,5,6,6,6,0,6,6,6,6,6,0,0,6,0,6,6,0,6,1,1,1,6,0,1,1,6,1,1,1,0,0,0,0,0,6,0,0,0,1,0,6,6,6,5,0,6,6,6,0,1,6,6,6,6,0,0,0,0,0,0,1,0,5,0,1,5,5,1,0,6,5,6,6,6,1,5,0,0,0,0,1,1,6,5,0,0,5,5,6,6,6,6,5,0,5,6,1,5,6,6,6,5,0,6,0,6,5,6,6,5,0,0,0,0,0,0,0,0,5,6,6,6,6,1,0,1,6,6,6,6,6,6,6,6,1,6,1,5,6,6,6,6,6,6,0,6,0,6,0,6,1,1,0,0,1,1,1,1,6,0,6,6,0,0,0,0,1,1,0,0,6,6,0,6,1,0,1,0,0,0,0,0,0,0,6,0,6,6,1,1,1,6,0,0,0,6,0,0,0,0,1,1,6,0,0,6,0,0,0,0,1,1,5,6,6,6,1,0,1,1,6,6,0,1,1,1,1,1,1,6,6,6,5,6,0,0,0,0,0,0,0,0,0,0,0,0,0,0,0,0,0,0,0,0,0,0,0,0,0,0,0,0,0,0,0,0,0,0,0,0,0,0,0,0,0,0,0,0,0,0,0,0,0,0,0,0,0,0,0,0,0,0,0,0,0,0,0,0,0,0,0,0,0,0,0,0,0,0,0,0,0,0,0,0,0,0,0,0,0,0,0,0,0,0,0,0,0,0,0,0,0,0,0,0,0,0,0,0,0,0,0,0,0,0,0,0,0,0,0,0,0,0,0,0,0,0,0,0,0,0,0,0,0,0,0,0,0,0,0,0,0,0,0,0,0,0,0,0,0,0,0,0,0,0,0,0,0,0,0,0,0,0,0,0,0,0,0,0,0,0,0,0,0,0,0,0,0,0,0,0,0,0,0,0,0,0,0,0,0,0,0,0,0,0,0,0,0,0,0,0,0,0,0,0,0,0,0,0,0,0],"split_type":[0,0,0,0,0,0,0,0,0,0,0,0,0,0,0,0,0,0,0,0,0,0,0,0,0,0,0,0,0,0,0,0,0,0,0,0,0,0,0,0,0,0,0,0,0,0,0,0,0,0,0,0,0,0,0,0,0,0,0,0,0,0,0,0,0,0,0,0,0,0,0,0,0,0,0,0,0,0,0,0,0,0,0,0,0,0,0,0,0,0,0,0,0,0,0,0,0,0,0,0,0,0,0,0,0,0,0,0,0,0,0,0,0,0,0,0,0,0,0,0,0,0,0,0,0,0,0,0,0,0,0,0,0,0,0,0,0,0,0,0,0,0,0,0,0,0,0,0,0,0,0,0,0,0,0,0,0,0,0,0,0,0,0,0,0,0,0,0,0,0,0,0,0,0,0,0,0,0,0,0,0,0,0,0,0,0,0,0,0,0,0,0,0,0,0,0,0,0,0,0,0,0,0,0,0,0,0,0,0,0,0,0,0,0,0,0,0,0,0,0,0,0,0,0,0,0,0,0,0,0,0,0,0,0,0,0,0,0,0,0,0,0,0,0,0,0,0,0,0,0,0,0,0,0,0,0,0,0,0,0,0,0,0,0,0,0,0,0,0,0,0,0,0,0,0,0,0,0,0,0,0,0,0,0,0,0,0,0,0,0,0,0,0,0,0,0,0,0,0,0,0,0,0,0,0,0,0,0,0,0,0,0,0,0,0,0,0,0,0,0,0,0,0,0,0,0,0,0,0,0,0,0,0,0,0,0,0,0,0,0,0,0,0,0,0,0,0,0,0,0,0,0,0,0,0,0,0,0,0,0,0,0,0,0,0,0,0,0,0,0,0,0,0,0,0,0,0,0,0,0,0,0,0,0,0,0,0,0,0,0,0,0,0,0,0,0,0,0,0,0,0,0,0,0,0,0,0,0,0,0,0,0,0,0,0,0,0,0,0,0,0,0,0,0,0,0,0,0,0,0,0,0,0,0,0,0,0,0,0,0,0,0,0,0,0,0,0,0,0,0,0,0,0,0,0,0,0,0,0,0,0,0,0,0,0,0,0,0,0,0,0,0,0,0,0,0,0,0,0,0,0,0,0,0,0,0,0,0,0,0,0,0,0,0,0,0,0,0,0,0,0,0,0,0,0,0,0,0,0,0,0,0,0,0,0,0,0,0,0,0,0,0,0,0,0,0,0,0,0,0,0,0,0,0,0,0,0,0,0,0,0,0,0,0,0,0,0,0,0,0,0,0,0,0,0,0,0,0,0,0,0,0,0,0,0,0,0,0,0,0,0,0,0,0,0,0,0,0,0,0,0,0,0,0,0,0,0,0,0,0,0,0,0,0,0,0,0,0,0,0,0,0,0],"sum_hessian":[8.7717E4,6.7033E4,2.0684E4,4.6467E4,2.0566E4,7.787E3,1.2897E4,3.8734E4,7.733E3,1.6235E4,4.331E3,2.089E3,5.698E3,3.483E3,9.414E3,5.647E3,3.3087E4,5.184E3,2.549E3,1.4023E4,2.212E3,2.884E3,1.447E3,1.62E3,4.69E2,1.039E3,4.659E3,2.618E3,8.65E2,3.821E3,5.593E3,4.774E3,8.73E2,1.3499E4,1.9588E4,6.92E2,4.492E3,4.67E2,2.082E3,3.182E3,1.0841E4,1.104E3,1.108E3,1.445E3,1.439E3,2.9E2,1.157E3,2.29E2,1.391E3,1.17E2,3.52E2,6.92E2,3.47E2,4.135E3,5.24E2,1.911E3,7.07E2,4.01E2,4.64E2,6.36E2,3.185E3,2.095E3,3.498E3,3.47E2,4.427E3,5.84E2,2.89E2,9.563E3,3.936E3,1.669E4,2.898E3,5.17E2,1.75E2,4.029E3,4.63E2,2.32E2,2.35E2,2.33E2,1.849E3,1.56E3,1.622E3,4.23E3,6.611E3,9.31E2,1.73E2,5.91E2,5.17E2,1.158E3,2.87E2,2.87E2,1.152E3,2.3E2,6E1,5.75E2,5.82E2,1.71E2,5.8E1,9.29E2,4.62E2,1.76E2,1.76E2,3.43E2,3.49E2,1.16E2,2.31E2,1.034E3,3.101E3,1.73E2,3.51E2,1.7E2,1.741E3,4.7E2,2.37E2,1.14E2,2.87E2,2.88E2,1.76E2,2.31E2,4.05E2,2.545E3,6.4E2,5.29E2,1.566E3,2.023E3,1.475E3,2.28E2,1.19E2,1.74E2,4.253E3,4.65E2,1.19E2,2.3E2,5.9E1,7.129E3,2.434E3,3.354E3,5.82E2,3.722E3,1.2968E4,1.736E3,1.162E3,3.46E2,1.71E2,1.16E2,5.9E1,3.094E3,9.35E2,2.3E2,2.33E2,5.7E1,1.75E2,5.8E1,1.77E2,5.8E1,1.75E2,1.159E3,6.9E2,8.68E2,6.92E2,1.27E3,3.52E2,9.13E2,3.317E3,2.101E3,4.51E3,2.89E2,6.42E2,6E1,5.31E2,2.87E2,2.3E2,2.88E2,8.7E2,1.73E2,1.14E2,2.3E2,5.7E1,5.75E2,5.77E2,5.8E1,1.72E2,4.61E2,1.14E2,1.14E2,4.68E2,5.9E1,1.12E2,6.96E2,2.33E2,2.27E2,2.35E2,1.18E2,5.8E1,6E1,1.16E2,2.84E2,5.9E1,1.72E2,1.77E2,5.9E1,5.7E1,1.15E2,1.16E2,5.16E2,5.18E2,2.409E3,6.92E2,5.9E1,1.14E2,1.78E2,1.73E2,5.5E1,1.15E2,5.21E2,1.22E3,2.34E2,2.36E2,6E1,1.77E2,5.8E1,5.6E1,1.75E2,1.12E2,1.73E2,5.8E1,3.48E2,5.7E1,1.159E3,1.386E3,2.34E2,4.06E2,5.8E1,4.71E2,5.21E2,1.045E3,1.445E3,5.78E2,3.13E2,1.162E3,5.9E1,6E1,5.8E1,1.16E2,1.219E3,3.034E3,1.13E2,3.52E2,5.9E1,6E1,5.097E3,2.032E3,8.17E2,1.617E3,3.008E3,3.46E2,5.24E2,5.8E1,2.503E3,1.219E3,5.327E3,7.641E3,1.389E3,3.47E2,2.32E2,9.3E2,1.72E2,1.74E2,5.5E1,1.16E2,2.558E3,5.36E2,4.71E2,4.64E2,1.11E2,1.19E2,1.73E2,6E1,5.9E1,1.18E2,5.9E1,1.16E2,9.24E2,2.35E2,2.27E2,4.63E2,6.96E2,1.72E2,2.27E2,4.65E2,4.65E2,8.05E2,1.19E2,2.33E2,6.28E2,2.85E2,1.217E3,2.1E3,1.054E3,1.047E3,1.743E3,2.767E3,1.13E2,1.76E2,3.51E2,2.91E2,1.76E2,3.55E2,5.7E1,2.3E2,6E1,1.7E2,5.8E1,2.3E2,5.21E2,3.49E2,1.18E2,1.12E2,3.43E2,2.32E2,2.29E2,3.48E2,1.14E2,5.8E1,2.32E2,2.29E2,5.6E1,5.8E1,5.7E1,5.7E1,2.33E2,2.35E2,5.5E1,5.7E1,2.32E2,4.64E2,5.8E1,1.75E2,1.69E2,5.8E1,1.78E2,5.7E1,5.9E1,5.9E1,5.9E1,1.13E2,5.8E1,5.7E1,3.42E2,1.74E2,2.87E2,2.31E2,1.023E3,1.386E3,4.63E2,2.29E2,5.8E1,5.6E1,6E1,1.18E2,5.9E1,1.14E2,5.6E1,5.9E1,1.73E2,3.48E2,7.01E2,5.19E2,1.15E2,1.19E2,1.76E2,6E1,5.8E1,1.15E2,1.73E2,1.75E2,9.28E2,2.31E2,1.156E3,2.3E2,1.76E2,5.8E1,2.33E2,1.73E2,1.77E2,2.94E2,1.7E2,3.51E2,1.75E2,8.7E2,5.83E2,8.62E2,1.18E2,4.6E2,7.6E1,2.37E2,9.29E2,2.33E2,1.75E2,1.044E3,3.54E2,2.68E3,5.4E1,5.9E1,1.16E2,2.36E2,8.15E2,4.282E3,8.08E2,1.224E3,4.64E2,3.53E2,1.39E3,2.27E2,5.15E2,2.493E3,1.71E2,1.75E2,1.14E2,4.1E2,2.093E3,4.1E2,8.1E2,4.09E2,9.19E2,4.408E3,1.388E3,6.253E3,1.165E3,2.24E2,1.16E2,2.31E2,5.7E1,1.75E2,6.99E2,2.31E2,6E1,1.14E2,5.7E1,5.9E1,7.02E2,1.856E3,4.11E2,1.25E2,3.53E2,1.18E2,2.34E2,2.3E2,6.9E2,2.34E2,1.17E2,1.18E2,5.5E1,1.72E2,2.34E2,2.29E2,3.51E2,3.45E2,5.7E1,1.15E2,2.32E2,2.33E2,1.74E2,2.91E2,4.52E2,3.53E2,5.9E1,6E1,1.19E2,1.14E2,1.17E2,5.11E2,1.7E2,1.15E2,3.49E2,8.68E2,1.58E3,5.2E2,7.04E2,3.5E2,6.98E2,3.49E2,5.87E2,1.156E3,1.378E3,1.389E3,5.6E1,5.7E1,5.9E1,1.17E2,5.7E1,2.94E2,2.32E2,5.9E1,1.19E2,5.7E1,1.77E2,1.78E2,1.73E2,5.7E1,5.8E1,1.12E2,1.72E2,5.8E1,3.44E2,1.77E2,2.32E2,1.17E2,1.73E2,1.7E2,1.16E2,1.16E2,1.15E2,1.14E2,1.73E2,1.75E2,6E1,5.4E1,1.17E2,1.15E2,1.73E2,5.6E1,1.16E2,1.17E2,1.17E2,1.18E2,1.14E2,1.18E2,3.48E2,1.16E2,5.9E1,1.16E2,1.1E2,5.9E1,1.2E2,5.8E1,2.31E2,1.11E2,1.71E2,1.16E2,5.6E1,1.75E2,6.78E2,3.45E2,6.92E2,6.94E2,1.16E2,3.47E2,1.16E2,1.13E2,5.8E1,6E1,5.8E1,1.15E2,1.15E2,2.33E2,3.47E2,3.54E2,6E1,5.9E1,5.9E1,1.14E2,5.8E1,1.17E2,2.36E2,6.92E2,5.9E1,1.72E2,5.78E2,5.78E2,5.7E1,1.73E2,5.9E1,1.17E2,1.77E2,5.6E1,1.16E2,5.7E1,1.2E2,5.7E1,1.76E2,1.18E2,1.76E2,1.75E2,1.17E2,5.8E1,5.77E2,2.93E2,3.52E2,2.31E2,6.94E2,1.68E2,5.9E1,5.9E1,2.32E2,2.28E2,5.9E1,1.7E1,5.9E1,1.78E2,2.32E2,6.97E2,6E1,1.73E2],"tree_param":{"num_deleted":"0","num_feature":"8","num_nodes":"603","size_leaf_vector":"1"}},{"base_weights":[4.2397004E-2,5.742518E0,-1.8383774E1,-4.126494E0,2.801842E1,-1.6341114E1,-3.1500425E1,-1.3591582E1,-9.851876E-1,3.2672615E1,-1.7025046E0,-2.0665662E0,-2.067434E1,-2.2791529E-1,-7.981277E-2,7.1556835E0,-2.0126705E1,1.3013715E0,-8.271573E0,1.7079449E1,3.72731E1,-1.7322257E-1,1.5460068E-1,-3.9561234E-2,9.2921245E-1,-2.3982685E1,4.311109E-2,-6.459466E-2,1.3366449E-1,-5.431343E-2,-2.1817036E1,-4.054768E0,5.3172603E0,-1.3804167E1,-2.7786705E0,1.9825602E1,5.7702605E-2,5.559366E1,2.5460064E1,6.672291E-3,2.4102358E-3,-8.254488E0,-2.8565258E1,-2.2800209E1,-8.580615E-2,5.969064E0,-1.3697E1,1.623528E-1,2.520688E0,-4.3110307E-2,-1.6269772E1,5.6743205E-2,-9.925779E0,7.218143E-2,1.2373923E-1,4.726005E-1,4.3582832E1,7.158215E-2,2.7599234E1,-3.2011922E-2,-4.859373E-2,-4.2128277E1,-2.2978474E1,-1.4452423E-1,-2.2217497E1,6.250803E-1,1.0756919E-1,-1.7315056E1,-5.927171E0,-1.0046192E1,5.6487393E0,-1.0405879E-1,-5.489436E-2,-2.8885365E-2,-6.805427E-2,4.899349E1,1.5956257E-1,3.481458E1,2.278287E1,-1.8896164E-1,-2.2245048E-1,-2.0705791E1,-2.6248587E1,-8.907184E-2,-2.3538794E1,9.28111E0,-8.169499E-2,-1.164505E-1,-1.4522811E1,-3.1862695E-2,-2.7476327E-2,-5.7841588E-2,-4.047717E-2,9.136307E0,-3.0780333E-1,2.306479E-1,2.47573E-1,1.12564646E-1,2.2714019E-1,8.2805224E-2,2.566789E1,-1.1452315E-1,-7.600979E-2,-1.1974235E-1,-1.3652092E-1,-1.108362E-1,-1.2309531E-1,8.614005E-2,4.3468983E-3,-6.729466E-2,-7.4459374E-2,2.5626745E-2,1.1989774E-1,-1.796255E-2,3.0368984E-2,1.1836567E-1,1.3220139E-1],"categories":[],"categories_nodes":[],"categories_segments":[],"categories_sizes":[],"default_left":[0,0,0,0,0,0,0,0,0,0,0,0,0,0,0,0,0,0,0,0,0,0,0,0,0,0,0,0,0,0,0,0,0,0,0,0,0,0,0,0,0,0,0,0,0,0,0,0,0,0,0,0,0,0,0,0,0,0,0,0,0,0,0,0,0,0,0,0,0,0,0,0,0,0,0,0,0,0,0,0,0,0,0,0,0,0,0,0,0,0,0,0,0,0,0,0,0,0,0,0,0,0,0,0,0,0,0,0,0,0,0,0,0,0,0,0,0],"id":3,"left_children":[1,3,5,7,9,11,13,15,17,19,21,23,25,-1,-1,27,29,31,33,35,37,-1,-1,-1,39,41,-1,-1,-1,-1,43,45,47,49,51,53,-1,55,57,-1,-1,59,61,63,-1,65,67,-1,69,-1,71,-1,73,-1,-1,-1,75,-1,77,-1,-1,79,81,-1,83,85,-1,87,89,91,93,-1,-1,-1,-1,95,-1,97,99,-1,-1,101,103,-1,105,107,-1,-1,109,-1,-1,-1,-1,111,113,-1,-1,-1,-1,-1,115,-1,-1,-1,-1,-1,-1,-1,-1,-1,-1,-1,-1,-1,-1,-1,-1],"loss_changes":[9.207328E6,1.4718817E7,5.54221E5,1.3794982E6,2.843437E6,1.1085815E6,6.4033775E5,1.567748E6,5.804322E5,1.274058E6,3.1381408E6,7.549331E4,1.342272E6,0E0,0E0,1.141975E6,1.3349825E5,5.704077E5,2.5282969E5,5.824075E4,2.967906E6,0E0,0E0,0E0,5.301387E2,8.907715E5,0E0,0E0,0E0,0E0,3.035725E4,1.0984E6,1.1835548E6,5.0664875E4,4.3001962E5,7.347875E4,0E0,2.654637E6,1.922895E5,0E0,0E0,7.9545938E3,7.24104E5,2.288975E4,0E0,4.781613E5,1.6268962E5,0E0,5.416587E5,0E0,6.987E4,0E0,4.4794125E4,0E0,0E0,0E0,2.437675E5,0E0,2.409545E5,0E0,0E0,3.04555E4,4.96795E4,0E0,2.8519E4,6.284576E5,0E0,7.1584875E4,2.7908984E2,8.543906E3,2.2918994E5,0E0,0E0,0E0,0E0,5.15E3,0E0,3.81859E5,6.968275E4,0E0,0E0,5.607975E4,7.269625E3,0E0,5.062E3,1.9573475E5,0E0,0E0,1.2045E3,0E0,0E0,0E0,0E0,4.1694038E5,8.967546E4,0E0,0E0,0E0,0E0,0E0,4.720625E3,0E0,0E0,0E0,0E0,0E0,0E0,0E0,0E0,0E0,0E0,0E0,0E0,0E0,0E0,0E0,0E0],"parents":[2147483647,0,0,1,1,2,2,3,3,4,4,5,5,6,6,7,7,8,8,9,9,10,10,11,11,12,12,15,15,16,16,17,17,18,18,19,19,20,20,24,24,25,25,30,30,31,31,32,32,33,33,34,34,35,35,37,37,38,38,41,41,42,42,43,43,45,45,46,46,48,48,50,50,52,52,56,56,58,58,61,61,62,62,64,64,65,65,67,67,68,68,69,69,70,70,75,75,77,77,78,78,81,81,82,82,84,84,85,85,88,88,93,93,94,94,100,100],"right_children":[2,4,6,8,10,12,14,16,18,20,22,24,26,-1,-1,28,30,32,34,36,38,-1,-1,-1,40,42,-1,-1,-1,-1,44,46,48,50,52,54,-1,56,58,-1,-1,60,62,64,-1,66,68,-1,70,-1,72,-1,74,-1,-1,-1,76,-1,78,-1,-1,80,82,-1,84,86,-1,88,90,92,94,-1,-1,-1,-1,96,-1,98,100,-1,-1,102,104,-1,106,108,-1,-1,110,-1,-1,-1,-1,112,114,-1,-1,-1,-1,-1,116,-1,-1,-1,-1,-1,-1,-1,-1,-1,-1,-1,-1,-1,-1,-1,-1],"split_conditions":[8E0,1.98E2,2.26E2,1.69E2,6E0,2E0,1E0,2E0,1.92E2,2.01E2,2.05E2,2.14E2,2.25E2,-2.2791529E-1,-7.981277E-2,1E0,3E0,1.81E2,4E0,2E0,2.06E2,-1.7322257E-1,1.5460068E-1,-3.9561234E-2,1E0,2.16E2,4.311109E-2,-6.459466E-2,1.3366449E-1,-5.431343E-2,6E0,1.73E2,3E0,2E0,5E0,1E0,5.7702605E-2,1E0,2.07E2,6.672291E-3,2.4102358E-3,3E0,2.18E2,1.61E2,-8.580615E-2,1.72E2,3E0,1.623528E-1,1.84E2,-4.3110307E-2,3E0,5.6743205E-2,6E0,7.218143E-2,1.2373923E-1,4.726005E-1,5E0,7.158215E-2,2.09E2,-3.2011922E-2,-4.859373E-2,5E0,5E0,-1.4452423E-1,1.62E2,1.71E2,1.0756919E-1,1E0,1.77E2,6E0,1.89E2,-1.0405879E-1,-5.489436E-2,-2.8885365E-2,-6.805427E-2,4E0,1.5956257E-1,3E0,2.1E2,-1.8896164E-1,-2.2245048E-1,4E0,6E0,-8.907184E-2,5E0,1E0,-8.169499E-2,-1.164505E-1,2E0,-3.1862695E-2,-2.7476327E-2,-5.7841588E-2,-4.047717E-2,4E0,6E0,2.306479E-1,2.47573E-1,1.12564646E-1,2.2714019E-1,8.2805224E-2,1E0,-1.1452315E-1,-7.600979E-2,-1.1974235E-1,-1.3652092E-1,-1.108362E-1,-1.2309531E-1,8.614005E-2,4.3468983E-3,-6.729466E-2,-7.4459374E-2,2.5626745E-2,1.1989774E-1,-1.796255E-2,3.0368984E-2,1.1836567E-1,1.3220139E-1],"split_indices":[3,5,5,5,1,1,1,1,5,5,5,5,5,0,0,1,1,5,1,1,5,0,0,0,1,5,0,0,0,0,1,5,2,1,1,1,0,1,5,0,0,1,5,5,0,5,1,0,5,0,1,0,1,0,0,0,1,0,5,0,0,1,1,0,5,5,0,1,5,1,5,0,0,0,0,1,0,1,5,0,0,1,1,0,1,1,0,0,1,0,0,0,0,1,1,0,0,0,0,0,1,0,0,0,0,0,0,0,0,0,0,0,0,0,0,0,0],"split_type":[0,0,0,0,0,0,0,0,0,0,0,0,0,0,0,0,0,0,0,0,0,0,0,0,0,0,0,0,0,0,0,0,0,0,0,0,0,0,0,0,0,0,0,0,0,0,0,0,0,0,0,0,0,0,0,0,0,0,0,0,0,0,0,0,0,0,0,0,0,0,0,0,0,0,0,0,0,0,0,0,0,0,0,0,0,0,0,0,0,0,0,0,0,0,0,0,0,0,0,0,0,0,0,0,0,0,0,0,0,0,0,0,0,0,0,0,0],"sum_hessian":[8.766E4,6.695E4,2.071E4,4.6396E4,2.0554E4,1.7922E4,2.788E3,1.156E4,3.4836E4,1.7771E4,2.783E3,4.174E3,1.3748E4,1.392E3,1.396E3,2.769E3,8.791E3,2.6516E4,8.32E3,4.05E3,1.3721E4,1.383E3,1.4E3,1.384E3,2.79E3,1.2362E4,1.386E3,1.379E3,1.39E3,1.391E3,7.4E3,1.1362E4,1.5154E4,4.144E3,4.176E3,2.659E3,1.391E3,5.377E3,8.344E3,1.391E3,1.399E3,2.79E3,9.572E3,6.004E3,1.396E3,5.571E3,5.791E3,1.378E3,1.3776E4,1.375E3,2.769E3,1.385E3,2.791E3,1.391E3,1.268E3,1.212E3,4.165E3,1.381E3,6.963E3,1.397E3,1.393E3,2.79E3,6.782E3,4.69E2,5.535E3,4.181E3,1.39E3,3.95E3,1.841E3,2.745E3,1.1031E4,1.381E3,1.388E3,1.397E3,1.394E3,2.781E3,1.384E3,2.784E3,4.179E3,1.401E3,1.389E3,4.007E3,2.775E3,1.385E3,4.15E3,2.79E3,1.391E3,1.18E3,2.77E3,6.07E2,1.234E3,1.353E3,1.392E3,6.957E3,4.074E3,1.385E3,1.396E3,1.39E3,1.394E3,1.387E3,2.792E3,2.609E3,1.398E3,1.389E3,1.386E3,2.77E3,1.38E3,1.397E3,1.393E3,1.381E3,1.389E3,5.557E3,1.4E3,2.687E3,1.387E3,1.395E3,1.397E3],"tree_param":{"num_deleted":"0","num_feature":"8","num_nodes":"117","size_leaf_vector":"1"}},{"base_weights":[-5.828205E-3,-9.889425E0,1.7291002E1,-5.2871804E0,-2.0846094E1,-3.9067385E0,2.9019382E1,-1.3040475E1,-8.318324E-1,-3.7516758E1,-1.525021E1,6.225578E0,-1.3587908E1,3.392475E1,-2.233017E0,6.774741E0,-1.7822882E1,9.175626E0,-4.720003E0,-4.2121525E1,-2.8394611E1,1.0593458E0,-2.0007318E1,9.960235E-1,2.2026905E1,-1.7120117E1,-6.0195327E0,5.7267254E1,2.9957523E1,-1.7432927E-1,1.5241165E-1,-1.3619856E1,2.7192356E1,-1.4583919E1,-2.3584963E1,5.2697163E0,2.4801598E1,-6.370748E0,1.5071081E1,-3.8992275E1,-4.52281E1,-1.3345164E-1,-1.4662178E-1,1.5347754E0,5.816929E-1,-2.4932344E1,8.891396E0,9.689748E0,-1.6503176E1,2.0778105E1,1.2502538E-1,-1.154939E-1,-1.4341104E1,-3.1468E0,-7.984173E0,4.7052503E-1,2.357785E1,1.8608149E1,3.630432E1,-1.5492933E1,-1.3139397E1,2.9096796E1,1.2376404E-1,-1.94837E1,-1.0756245E1,-2.2786072E1,-1.228866E-1,8.391703E0,2.1473665E0,2.452443E1,1.3752358E-1,-9.825907E0,-1.5952652E0,1.4731356E1,1.045906E-1,-1.7947021E-1,-1.9457878E-1,-2.2649805E-1,-2.0459129E-1,-8.682694E-1,1.8822306E0,1.380599E0,-7.109882E-1,-2.2711782E-1,-2.0500206E1,5.00379E-2,8.141055E0,1.1940861E0,1.8133457E1,-7.2984785E-2,-8.988648E-2,2.5020233E1,1.941033E1,-1.3433864E1,-1.5228013E1,5.2753067E-1,-4.1314216E0,-1.1021761E1,-6.4992747E0,1.1197036E-1,1.1927738E-1,2.4972635E1,1.6671436E1,4.196338E1,2.2022299E1,-7.321602E-2,-9.804384E-2,-5.688882E-2,-1.3464243E1,1.5513927E-1,2.8328226E1,-1.4380437E-1,-8.692963E-2,-1.17919855E1,-8.714499E0,-2.0505356E1,-2.3528973E1,7.71034E0,9.075163E0,-3.641245E0,7.946567E0,1.205082E-1,7.2167434E-2,-7.1883597E0,-1.630784E1,4.1274133E0,-1.01639185E1,1.2557207E1,7.526397E-2,2.506498E0,-4.1585336E0,4.099686E0,1.7506146E0,2.1721773E0,8.388821E-1,9.201059E-2,-1.2255921E0,-1.9421003E1,-2.4616737E1,-3.346395E0,8.720682E0,-1.2287798E-1,1.6011132E0,9.962029E-2,1.6808332E1,1.4733478E-1,1.1620547E-1,1.8552631E1,9.874822E-2,-1.0811198E1,-1.5718979E1,-8.135695E-2,-1.4303523E1,3.0030556E0,-7.2955024E-1,-1.6178364E0,-5.448748E0,-7.919395E0,-1.3128797E1,-6.9156604E0,-5.082679E0,1.417451E-1,2.3623983E1,1.3412154E1,1.1291566E-1,4.8831795E1,3.7371964E1,8.37269E-2,2.6829227E1,-8.9675725E-2,-1.3187004E1,1.23236336E-1,1.4200954E-1,-8.944466E0,-1.2563332E1,-8.019094E0,-9.662087E0,-1.0460746E-1,-1.9493988E1,-1.1925108E-1,-2.168762E1,6.616946E0,5.6463964E-2,1.2951669E1,8.087079E0,-4.31012E0,-2.9783995E0,4.5732026E0,8.119827E0,-2.205985E0,-8.34136E0,-2.1444E1,-1.1103916E1,-5.3593197E0,8.864357E0,-6.1993103E0,-1.4132886E1,6.3109875E-2,3.4847062E-2,-1.180563E-2,4.2933164E0,-4.4134197E0,-1.5701758E-2,2.903575E0,3.0176006E-2,1.5020839E0,2.8374672E0,1.9808987E0,2.3055878E-2,7.042026E-1,1.7688788E-2,-6.2807165E-2,6.551506E-3,-2.1236E0,-1.0628618E0,-2.3031197E1,-1.604401E1,-1.0875797E-1,-1.2933406E-1,-3.660547E-2,5.741304E-3,1.0258571E1,8.205892E0,3.3451906E-1,-7.2884727E-1,2.72829E0,2.6317152E-1,7.83436E-2,9.553464E-2,1.9562975E1,1.6493513E1,-1.020711E1,-5.965944E-2,-1.5990383E1,-6.901974E-2,-1.4822451E1,-6.4316295E-2,2.6036417E0,2.0465212E-2,5.4007286E-1,-7.622606E-3,3.7200844E-1,-2.2932477E0,-1.982692E-2,-5.806572E0,-2.6805293E-2,-8.603382E0,-1.677683E1,-5.7455733E-2,-4.9033243E-2,-6.7887564E0,-5.6086845E0,-2.1796241E-2,1.2464668E-1,1.12487674E-1,1.2309576E1,1.4504096E1,2.316737E-1,5.0187378E1,2.2422582E-1,3.3075787E1,1.22822866E-1,1.3590515E-1,-6.538942E-2,-5.211777E-2,-3.6998563E-2,-4.4779018E-2,-6.5007746E-2,-5.7718888E-2,-4.0297437E-2,-3.5620958E-2,-7.05309E-2,-4.6064895E-2,-9.761872E-2,-7.685776E-2,-9.843185E-2,-1.13085836E-1,-5.3063435E-3,3.3054058E-2,6.516548E-2,5.2000534E-2,4.130739E-2,2.8651703E-2,-1.7618274E-2,-2.3284854E-2,-9.881166E-3,-1.7239874E-2,2.7906895E-2,9.988552E-3,4.234985E-2,3.612995E-2,-2.0847319E-2,-7.3263417E-3,-3.40508E-2,-4.613907E-2,-9.640859E-2,-1.0708801E-1,-5.8048572E-2,-4.51179E-2,-7.720591E-3,-3.938747E-2,3.2996144E-2,5.3613387E-2,-3.0933652E-2,-2.2718392E-2,-4.259615E-2,-7.935032E-2,1.5037414E-2,2.3113307E-2,-1.7442124E-2,-2.8258428E-2,1.8498586E-2,8.572291E-3,8.045924E-3,3.218425E-3,2.5248358E-2,1.2297191E-2,1.0970981E-2,1.855679E-3,1.7001363E-3,5.3695375E-3,1.2285078E-3,-8.56734E-4,-3.571342E-3,-1.6829778E-2,-0E0,-6.863572E-3,-1.1385966E-1,-1.0285964E-1,-8.293857E-2,-7.5003356E-2,4.4236183E-2,7.011025E-2,4.197978E-2,3.797525E-2,1.8261424E-3,3.491352E-5,-9.773175E-3,2.6158036E-3,9.4969375E-3,1.5898593E-2,3.271242E-4,7.03661E-3,7.209779E-2,9.7405985E-2,7.4084066E-2,9.100207E-2,-6.062277E-2,-4.510441E-2,-7.005274E-2,-8.0196746E-2,-6.927963E-2,-7.736045E-2,1.6970294E-2,7.862421E-3,3.486895E-3,1.5725141E-3,8.344278E-3,2.1202386E-4,-1.046486E-2,-1.842362E-2,-3.0229848E-2,-2.415689E-2,-7.340176E-2,-3.767582E-2,-4.9929783E-2,-9.59255E-2,-2.7698375E-2,-3.570106E-2,-2.4126295E-2,-3.5544988E-2,5.9080403E-2,6.888786E-2,7.312908E-2,6.824677E-2,2.403313E-1,2.584643E-1,1.560257E-1,1.6695923E-1],"categories":[],"categories_nodes":[],"categories_segments":[],"categories_sizes":[],"default_left":[0,0,0,0,0,0,0,0,0,0,0,0,0,0,0,0,0,0,0,0,0,0,0,0,0,0,0,0,0,0,0,0,0,0,0,0,0,0,0,0,0,0,0,0,0,0,0,0,0,0,0,0,0,0,0,0,0,0,0,0,0,0,0,0,0,0,0,0,0,0,0,0,0,0,0,0,0,0,0,0,0,0,0,0,0,0,0,0,0,0,0,0,0,0,0,0,0,0,0,0,0,0,0,0,0,0,0,0,0,0,0,0,0,0,0,0,0,0,0,0,0,0,0,0,0,0,0,0,0,0,0,0,0,0,0,0,0,0,0,0,0,0,0,0,0,0,0,0,0,0,0,0,0,0,0,0,0,0,0,0,0,0,0,0,0,0,0,0,0,0,0,0,0,0,0,0,0,0,0,0,0,0,0,0,0,0,0,0,0,0,0,0,0,0,0,0,0,0,0,0,0,0,0,0,0,0,0,0,0,0,0,0,0,0,0,0,0,0,0,0,0,0,0,0,0,0,0,0,0,0,0,0,0,0,0,0,0,0,0,0,0,0,0,0,0,0,0,0,0,0,0,0,0,0,0,0,0,0,0,0,0,0,0,0,0,0,0,0,0,0,0,0,0,0,0,0,0,0,0,0,0,0,0,0,0,0,0,0,0,0,0,0,0,0,0,0,0,0,0,0,0,0,0,0,0,0,0,0,0,0,0,0,0,0,0,0,0,0,0,0,0,0,0,0,0,0,0,0,0,0,0,0,0,0,0,0,0,0,0,0,0,0,0,0,0,0,0,0,0,0,0,0,0,0,0,0,0,0,0,0,0,0,0,0,0,0,0,0,0,0,0,0,0,0,0,0,0,0,0],"id":4,"left_children":[1,3,5,7,9,11,13,15,17,19,21,23,25,27,29,31,33,35,37,39,41,43,45,47,49,51,53,55,57,-1,-1,59,61,63,65,67,69,71,73,75,77,-1,-1,79,81,83,85,87,89,91,-1,-1,93,95,97,-1,99,101,103,105,107,109,-1,111,113,115,-1,117,119,121,-1,123,125,127,-1,-1,-1,-1,-1,129,131,133,135,-1,137,-1,139,141,143,-1,-1,145,147,149,151,153,155,157,159,-1,-1,161,163,165,167,-1,-1,-1,169,-1,171,-1,-1,173,175,177,179,181,183,185,187,-1,-1,189,191,193,195,197,-1,199,201,203,205,207,209,211,213,215,217,219,221,223,225,-1,227,-1,-1,229,-1,231,233,-1,235,237,239,241,243,245,247,249,251,-1,253,255,-1,257,259,-1,261,-1,263,-1,-1,265,267,269,271,-1,273,-1,275,277,-1,279,281,283,285,287,289,291,293,295,297,299,301,303,305,-1,-1,-1,307,309,-1,311,-1,313,315,317,-1,319,-1,321,-1,323,325,327,329,-1,-1,-1,-1,331,333,335,337,339,341,-1,-1,343,345,347,-1,349,-1,351,-1,353,-1,355,-1,357,359,-1,361,-1,363,365,-1,-1,367,369,-1,-1,-1,371,373,-1,375,-1,377,-1,-1,-1,-1,-1,-1,-1,-1,-1,-1,-1,-1,-1,-1,-1,-1,-1,-1,-1,-1,-1,-1,-1,-1,-1,-1,-1,-1,-1,-1,-1,-1,-1,-1,-1,-1,-1,-1,-1,-1,-1,-1,-1,-1,-1,-1,-1,-1,-1,-1,-1,-1,-1,-1,-1,-1,-1,-1,-1,-1,-1,-1,-1,-1,-1,-1,-1,-1,-1,-1,-1,-1,-1,-1,-1,-1,-1,-1,-1,-1,-1,-1,-1,-1,-1,-1,-1,-1,-1,-1,-1,-1,-1,-1,-1,-1,-1,-1,-1,-1,-1,-1,-1,-1,-1,-1,-1,-1,-1,-1,-1,-1,-1,-1,-1,-1,-1,-1],"loss_changes":[1.4980546E7,2.811779E6,7.922113E6,1.3565561E6,1.5379345E6,1.1135961E6,3.145048E6,1.3582632E6,9.705409E5,1.72478E5,9.5832725E5,4.583619E5,1.5505125E5,1.639708E6,3.1175662E6,1.1611629E6,2.150055E5,4.257922E5,5.869875E5,2.4384E4,1.321375E3,6.319033E2,1.3612745E6,6.345033E5,5.4395E3,7.1351375E4,1.040107E4,3.386546E6,1.090976E6,0E0,0E0,9.779531E2,3.9131875E3,1.3839262E5,4.46375E3,5.4418656E4,3.6875E2,2.73569E5,2.5540938E3,6.735E2,2.6705E3,0E0,0E0,1.1691392E3,1.4414462E3,7.79995E5,1.3009844E3,1.9984292E5,3.7304375E3,5.3162188E3,0E0,0E0,1.9573125E3,2.7292646E3,4.8497656E3,0E0,5.625E0,6.648275E4,7.84381E5,2.2726562E2,3.2701562E2,1.806875E2,0E0,5.36415E4,8.643406E3,4.04375E3,0E0,1.203E3,9.384319E4,1.4344375E3,0E0,1.6431112E5,3.4145944E5,1.6850938E3,0E0,0E0,0E0,0E0,0E0,1.9832852E3,3.4535498E2,3.6654944E2,2.2083862E2,0E0,2.9476E4,0E0,6.0548984E3,7.4592883E2,3.7309375E3,0E0,0E0,5.865156E2,3.715625E1,8.0698125E3,1.5223125E3,5.0244318E2,1.9543477E3,2.1987227E3,3.8682812E2,0E0,0E0,5.99775E3,8.7340625E4,2.17055E5,6.4117625E4,0E0,0E0,0E0,9.06625E2,0E0,2.62875E2,0E0,0E0,5.8904375E3,8.172031E2,7.503125E1,2.697125E3,5.8208047E3,5.1654688E3,6.014199E2,7.634375E2,0E0,0E0,3.926822E4,7.401519E4,1.8769531E5,4.375375E4,5.0978125E2,0E0,7.913911E2,8.421631E-1,1.4122278E2,3.052527E2,1.561156E2,1.8825076E2,4.0950157E1,4.369095E1,6.5069625E4,5.35225E3,8.4512366E2,5.6448047E2,9.170834E1,1.6003357E3,0E0,1.4498906E3,0E0,0E0,3.88875E2,0E0,3.7982812E2,9.40625E0,0E0,2.3771875E2,9.470856E0,1.14675674E2,2.789433E2,1.5954297E2,1.8013965E2,7.8159766E2,1.3043555E2,2.0557129E1,0E0,2.795625E2,3.0985E3,0E0,2.0675E3,1.512865E5,0E0,1.3884375E3,0E0,2.4607812E2,0E0,0E0,8.540625E1,9.8878125E2,5.3847656E1,4.5660938E2,0E0,2.1210156E2,0E0,9.2246875E2,1.2952148E3,0E0,5.7539062E1,8.4446094E2,1.9795508E2,3.6180908E2,1.8819751E2,4.3897656E2,1.8642334E3,8.321125E3,5.68E2,1.8697031E3,1.4206484E4,1.2308156E4,2.4991406E2,1.57440625E4,0E0,0E0,0E0,1.3436523E1,4.788672E1,0E0,3.571927E1,0E0,1.13649414E2,1.3957727E2,1.3737024E2,0E0,6.8404236E1,0E0,6.6707997E0,0E0,8.453009E1,1.0104886E2,7.885E2,1.4375625E3,0E0,0E0,0E0,0E0,8.5569727E2,1.6160156E1,2.3247185E0,2.3081564E2,2.2833252E2,1.1206572E2,0E0,0E0,7.678906E1,1.0609375E1,8.3270703E2,0E0,1.1915625E2,0E0,6.782031E1,0E0,2.9592682E1,0E0,1.0602179E0,0E0,2.2853117E1,2.2009155E1,0E0,5.7448242E1,0E0,4.871582E2,7.458037E2,0E0,0E0,2.622539E2,4.7585693E1,0E0,0E0,0E0,2.9503125E2,6.00625E1,0E0,2.1875E2,0E0,2.02225E3,0E0,0E0,0E0,0E0,0E0,0E0,0E0,0E0,0E0,0E0,0E0,0E0,0E0,0E0,0E0,0E0,0E0,0E0,0E0,0E0,0E0,0E0,0E0,0E0,0E0,0E0,0E0,0E0,0E0,0E0,0E0,0E0,0E0,0E0,0E0,0E0,0E0,0E0,0E0,0E0,0E0,0E0,0E0,0E0,0E0,0E0,0E0,0E0,0E0,0E0,0E0,0E0,0E0,0E0,0E0,0E0,0E0,0E0,0E0,0E0,0E0,0E0,0E0,0E0,0E0,0E0,0E0,0E0,0E0,0E0,0E0,0E0,0E0,0E0,0E0,0E0,0E0,0E0,0E0,0E0,0E0,0E0,0E0,0E0,0E0,0E0,0E0,0E0,0E0,0E0,0E0,0E0,0E0,0E0,0E0,0E0,0E0,0E0,0E0,0E0,0E0,0E0,0E0,0E0,0E0,0E0,0E0,0E0,0E0,0E0,0E0,0E0,0E0,0E0,0E0,0E0,0E0,0E0],"parents":[2147483647,0,0,1,1,2,2,3,3,4,4,5,5,6,6,7,7,8,8,9,9,10,10,11,11,12,12,13,13,14,14,15,15,16,16,17,17,18,18,19,19,20,20,21,21,22,22,23,23,24,24,25,25,26,26,27,27,28,28,31,31,32,32,33,33,34,34,35,35,36,36,37,37,38,38,39,39,40,40,43,43,44,44,45,45,46,46,47,47,48,48,49,49,52,52,53,53,54,54,56,56,57,57,58,58,59,59,60,60,61,61,63,63,64,64,65,65,67,67,68,68,69,69,71,71,72,72,73,73,79,79,80,80,81,81,82,82,84,84,86,86,87,87,88,88,91,91,92,92,93,93,94,94,95,95,96,96,97,97,98,98,101,101,102,102,103,103,104,104,108,108,110,110,113,113,114,114,115,115,116,116,117,117,118,118,119,119,120,120,123,123,124,124,125,125,126,126,127,127,129,129,130,130,131,131,132,132,133,133,134,134,135,135,136,136,137,137,138,138,139,139,140,140,141,141,142,142,144,144,147,147,149,149,150,150,152,152,153,153,154,154,155,155,156,156,157,157,158,158,159,159,160,160,162,162,163,163,165,165,166,166,168,168,170,170,173,173,174,174,175,175,176,176,178,178,180,180,181,181,183,183,184,184,185,185,186,186,187,187,188,188,189,189,190,190,191,191,192,192,193,193,194,194,195,195,196,196,200,200,201,201,203,203,205,205,206,206,207,207,209,209,211,211,213,213,214,214,215,215,216,216,221,221,222,222,223,223,224,224,225,225,226,226,229,229,230,230,231,231,233,233,235,235,237,237,239,239,241,241,242,242,244,244,246,246,247,247,250,250,251,251,255,255,256,256,258,258,260,260],"right_children":[2,4,6,8,10,12,14,16,18,20,22,24,26,28,30,32,34,36,38,40,42,44,46,48,50,52,54,56,58,-1,-1,60,62,64,66,68,70,72,74,76,78,-1,-1,80,82,84,86,88,90,92,-1,-1,94,96,98,-1,100,102,104,106,108,110,-1,112,114,116,-1,118,120,122,-1,124,126,128,-1,-1,-1,-1,-1,130,132,134,136,-1,138,-1,140,142,144,-1,-1,146,148,150,152,154,156,158,160,-1,-1,162,164,166,168,-1,-1,-1,170,-1,172,-1,-1,174,176,178,180,182,184,186,188,-1,-1,190,192,194,196,198,-1,200,202,204,206,208,210,212,214,216,218,220,222,224,226,-1,228,-1,-1,230,-1,232,234,-1,236,238,240,242,244,246,248,250,252,-1,254,256,-1,258,260,-1,262,-1,264,-1,-1,266,268,270,272,-1,274,-1,276,278,-1,280,282,284,286,288,290,292,294,296,298,300,302,304,306,-1,-1,-1,308,310,-1,312,-1,314,316,318,-1,320,-1,322,-1,324,326,328,330,-1,-1,-1,-1,332,334,336,338,340,342,-1,-1,344,346,348,-1,350,-1,352,-1,354,-1,356,-1,358,360,-1,362,-1,364,366,-1,-1,368,370,-1,-1,-1,372,374,-1,376,-1,378,-1,-1,-1,-1,-1,-1,-1,-1,-1,-1,-1,-1,-1,-1,-1,-1,-1,-1,-1,-1,-1,-1,-1,-1,-1,-1,-1,-1,-1,-1,-1,-1,-1,-1,-1,-1,-1,-1,-1,-1,-1,-1,-1,-1,-1,-1,-1,-1,-1,-1,-1,-1,-1,-1,-1,-1,-1,-1,-1,-1,-1,-1,-1,-1,-1,-1,-1,-1,-1,-1,-1,-1,-1,-1,-1,-1,-1,-1,-1,-1,-1,-1,-1,-1,-1,-1,-1,-1,-1,-1,-1,-1,-1,-1,-1,-1,-1,-1,-1,-1,-1,-1,-1,-1,-1,-1,-1,-1,-1,-1,-1,-1,-1,-1,-1,-1,-1,-1],"split_conditions":[1.8E1,2.16E2,1.81E2,1.84E2,7E0,2.2E1,6E0,2E0,1.89E2,6E0,9E0,2.1E1,3E0,1E0,2.4E1,1.3E1,1.5E1,7E0,1.7E1,5E0,3.7E1,8E0,6E0,2E1,4.5E1,2.7E1,2.4E1,2.5E1,3E0,-1.7432927E-1,1.5241165E-1,1.2E1,2.9E1,1.63E2,1.7E1,5E0,5.6E1,4E0,5.7E1,1.7E1,4.4E1,-1.3345164E-1,-1.4662178E-1,8E0,3.7E1,1E0,2.1E1,1.9E1,3.3E1,1.1E1,1.2502538E-1,-1.154939E-1,2.8E1,5E0,2.3E1,4.7052503E-1,3.5E1,1.9E1,2.09E2,1.1E1,2.1E1,6E0,1.2376404E-1,1E1,6E0,1.5E1,-1.228866E-1,4E0,6E0,5.5E1,1.3752358E-1,1.2E1,1.5E1,1.4E1,1.045906E-1,-1.7947021E-1,-1.9457878E-1,-2.2649805E-1,-2.0459129E-1,4E0,1.1E1,1.5E1,4.6E1,-2.2711782E-1,5E0,5.00379E-2,2.3E1,1.4E1,2.2E1,-7.2984785E-2,-8.988648E-2,2E0,2.8E1,2.8E1,2.3E1,2.3E1,2.3E1,3.7E1,5.2E1,1.1197036E-1,1.1927738E-1,1.5E1,2.6E1,2.2E1,2.9E1,-7.321602E-2,-9.804384E-2,-5.688882E-2,2.3E1,1.5513927E-1,1.1E1,-1.4380437E-1,-8.692963E-2,1.3E1,3.5E1,1.6E1,4.5E1,4.7E1,1.2E1,3E1,3E0,1.205082E-1,7.2167434E-2,1E0,1.3E1,9E0,1.6E1,1.3E1,7.526397E-2,1E0,7E0,1E1,5.1E1,1.4E1,3.6E1,4.5E1,4.8E1,1.1E1,2.7E1,2.2E1,3.2E1,8E0,3.9E1,9.962029E-2,5.2E1,1.4733478E-1,1.1620547E-1,2.2E1,9.874822E-2,2E1,5.5E1,-8.135695E-2,4.8E1,4E0,2E0,1E1,9E0,2.7E1,4.3E1,2.5E1,5.6E1,1.417451E-1,2.5E1,2E1,1.1291566E-1,2.1E1,4E0,8.37269E-2,2.3E1,-8.9675725E-2,5.7E1,1.23236336E-1,1.4200954E-1,2E0,2E0,2.6E1,3.6E1,-1.0460746E-1,1.3E1,-1.1925108E-1,1.6E1,1E0,5.6463964E-2,1E1,5.3E1,1.2E1,4.1E1,2E0,3.5E1,1.5E1,2.7E1,1.4E1,4.2E1,2.5E1,1E1,5.5E1,1.7E1,6.3109875E-2,3.4847062E-2,-1.180563E-2,2E0,6E0,-1.5701758E-2,9E0,3.0176006E-2,4.5E1,5.2E1,1.2E1,2.3055878E-2,2.6E1,1.7688788E-2,3.9E1,6.551506E-3,4.7E1,5.1E1,5.2E1,2.5E1,-1.0875797E-1,-1.2933406E-1,-3.660547E-2,5.741304E-3,3E1,4.6E1,7E0,1.1E1,2.4E1,5.7E1,7.83436E-2,9.553464E-2,1.2E1,2.6E1,6E0,-5.965944E-2,3.4E1,-6.901974E-2,3.9E1,-6.4316295E-2,2E0,2.0465212E-2,1E0,-7.622606E-3,6E0,2.3E1,-1.982692E-2,1.9E1,-2.6805293E-2,2.8E1,3.9E1,-5.7455733E-2,-4.9033243E-2,3.4E1,5.5E1,-2.1796241E-2,1.2464668E-1,1.12487674E-1,5.4E1,3.1E1,2.316737E-1,4.5E1,2.2422582E-1,2.3E1,1.22822866E-1,1.3590515E-1,-6.538942E-2,-5.211777E-2,-3.6998563E-2,-4.4779018E-2,-6.5007746E-2,-5.7718888E-2,-4.0297437E-2,-3.5620958E-2,-7.05309E-2,-4.6064895E-2,-9.761872E-2,-7.685776E-2,-9.843185E-2,-1.13085836E-1,-5.3063435E-3,3.3054058E-2,6.516548E-2,5.2000534E-2,4.130739E-2,2.8651703E-2,-1.7618274E-2,-2.3284854E-2,-9.881166E-3,-1.7239874E-2,2.7906895E-2,9.988552E-3,4.234985E-2,3.612995E-2,-2.0847319E-2,-7.3263417E-3,-3.40508E-2,-4.613907E-2,-9.640859E-2,-1.0708801E-1,-5.8048572E-2,-4.51179E-2,-7.720591E-3,-3.938747E-2,3.2996144E-2,5.3613387E-2,-3.0933652E-2,-2.2718392E-2,-4.259615E-2,-7.935032E-2,1.5037414E-2,2.3113307E-2,-1.7442124E-2,-2.8258428E-2,1.8498586E-2,8.572291E-3,8.045924E-3,3.218425E-3,2.5248358E-2,1.2297191E-2,1.0970981E-2,1.855679E-3,1.7001363E-3,5.3695375E-3,1.2285078E-3,-8.56734E-4,-3.571342E-3,-1.6829778E-2,-0E0,-6.863572E-3,-1.1385966E-1,-1.0285964E-1,-8.293857E-2,-7.5003356E-2,4.4236183E-2,7.011025E-2,4.197978E-2,3.797525E-2,1.8261424E-3,3.491352E-5,-9.773175E-3,2.6158036E-3,9.4969375E-3,1.5898593E-2,3.271242E-4,7.03661E-3,7.209779E-2,9.7405985E-2,7.4084066E-2,9.100207E-2,-6.062277E-2,-4.510441E-2,-7.005274E-2,-8.0196746E-2,-6.927963E-2,-7.736045E-2,1.6970294E-2,7.862421E-3,3.486895E-3,1.5725141E-3,8.344278E-3,2.1202386E-4,-1.046486E-2,-1.842362E-2,-3.0229848E-2,-2.415689E-2,-7.340176E-2,-3.767582E-2,-4.9929783E-2,-9.59255E-2,-2.7698375E-2,-3.570106E-2,-2.4126295E-2,-3.5544988E-2,5.9080403E-2,6.888786E-2,7.312908E-2,6.824677E-2,2.403313E-1,2.584643E-1,1.560257E-1,1.6695923E-1],"split_indices":[0,5,5,5,0,0,1,1,5,0,0,0,1,1,0,0,0,0,0,0,7,0,1,0,7,0,7,0,1,0,0,7,7,5,0,0,7,1,7,7,7,0,0,7,7,1,7,0,7,7,0,0,0,7,0,0,7,0,5,7,7,7,0,0,1,7,0,0,0,7,0,0,0,7,0,0,0,0,0,7,7,7,7,0,1,0,7,7,7,0,0,7,7,7,7,0,0,7,7,0,0,7,0,0,0,0,0,0,7,0,7,0,0,7,7,0,7,7,7,7,7,0,0,1,0,0,0,7,0,7,7,7,7,7,7,7,7,0,7,7,7,7,7,0,7,0,0,7,0,7,7,0,7,7,7,7,7,7,7,7,7,0,7,0,0,0,1,0,7,0,7,0,0,7,0,7,7,0,7,0,0,7,0,7,7,7,7,7,7,7,7,7,7,7,0,7,7,0,0,0,7,7,0,7,0,7,7,7,0,7,0,7,0,7,7,7,7,0,0,0,0,7,7,7,7,7,7,0,0,7,7,7,0,7,0,7,0,7,0,7,0,7,7,0,7,0,7,7,0,0,7,7,0,0,0,7,7,0,7,0,0,0,0,0,0,0,0,0,0,0,0,0,0,0,0,0,0,0,0,0,0,0,0,0,0,0,0,0,0,0,0,0,0,0,0,0,0,0,0,0,0,0,0,0,0,0,0,0,0,0,0,0,0,0,0,0,0,0,0,0,0,0,0,0,0,0,0,0,0,0,0,0,0,0,0,0,0,0,0,0,0,0,0,0,0,0,0,0,0,0,0,0,0,0,0,0,0,0,0,0,0,0,0,0,0,0,0,0,0,0,0,0,0,0,0,0,0,0,0],"split_type":[0,0,0,0,0,0,0,0,0,0,0,0,0,0,0,0,0,0,0,0,0,0,0,0,0,0,0,0,0,0,0,0,0,0,0,0,0,0,0,0,0,0,0,0,0,0,0,0,0,0,0,0,0,0,0,0,0,0,0,0,0,0,0,0,0,0,0,0,0,0,0,0,0,0,0,0,0,0,0,0,0,0,0,0,0,0,0,0,0,0,0,0,0,0,0,0,0,0,0,0,0,0,0,0,0,0,0,0,0,0,0,0,0,0,0,0,0,0,0,0,0,0,0,0,0,0,0,0,0,0,0,0,0,0,0,0,0,0,0,0,0,0,0,0,0,0,0,0,0,0,0,0,0,0,0,0,0,0,0,0,0,0,0,0,0,0,0,0,0,0,0,0,0,0,0,0,0,0,0,0,0,0,0,0,0,0,0,0,0,0,0,0,0,0,0,0,0,0,0,0,0,0,0,0,0,0,0,0,0,0,0,0,0,0,0,0,0,0,0,0,0,0,0,0,0,0,0,0,0,0,0,0,0,0,0,0,0,0,0,0,0,0,0,0,0,0,0,0,0,0,0,0,0,0,0,0,0,0,0,0,0,0,0,0,0,0,0,0,0,0,0,0,0,0,0,0,0,0,0,0,0,0,0,0,0,0,0,0,0,0,0,0,0,0,0,0,0,0,0,0,0,0,0,0,0,0,0,0,0,0,0,0,0,0,0,0,0,0,0,0,0,0,0,0,0,0,0,0,0,0,0,0,0,0,0,0,0,0,0,0,0,0,0,0,0,0,0,0,0,0,0,0,0,0,0,0,0,0,0,0,0,0,0,0,0,0,0,0,0,0,0,0,0,0,0,0,0,0,0],"sum_hessian":[8.7626E4,5.5763E4,3.1863E4,3.927E4,1.6493E4,1.135E4,2.0513E4,1.433E4,2.494E4,4.143E3,1.235E4,5.546E3,5.804E3,1.773E4,2.783E3,2.786E3,1.1544E4,6.978E3,1.7962E4,2.75E3,1.393E3,2.789E3,9.561E3,4.168E3,1.378E3,3.956E3,1.848E3,2.573E3,1.5157E4,1.391E3,1.392E3,1.394E3,1.392E3,7.393E3,4.151E3,5.584E3,1.394E3,1.658E4,1.382E3,1.379E3,1.371E3,8.56E2,5.37E2,1.396E3,1.393E3,8.169E3,1.392E3,2.785E3,1.383E3,1.028E3,3.5E2,1.178E3,2.778E3,7.52E2,1.096E3,1.19E3,1.383E3,5.438E3,9.719E3,2.76E2,1.118E3,6.76E2,7.16E2,3.24E3,4.153E3,2.77E3,1.381E3,2.791E3,2.793E3,1.298E3,9.6E1,9.619E3,6.961E3,1.316E3,6.6E1,3.96E2,9.83E2,1.006E3,3.65E2,1.76E2,1.22E3,8.61E2,5.32E2,1.39E3,6.779E3,4.9E2,9.02E2,1.389E3,1.396E3,7.67E2,6.16E2,2.45E2,7.83E2,1.384E3,1.394E3,1.59E2,5.93E2,3.57E2,7.39E2,8.04E2,5.79E2,1.265E3,4.173E3,6.959E3,2.76E3,2.54E2,2.2E1,2.09E2,9.09E2,1.39E2,5.37E2,4.65E2,2.775E3,2.751E3,1.402E3,6.9E2,2.08E3,1.406E3,1.385E3,1.398E3,1.395E3,1.276E3,2.2E1,6.839E3,2.78E3,4.174E3,2.787E3,3.2E2,9.96E2,8.7E1,8.9E1,6.6E1,1.154E3,3.48E2,5.13E2,2.08E2,3.24E2,5.377E3,1.402E3,4.3E1,8.59E2,3.28E2,1.061E3,5.08E2,8.88E2,4.1E1,2.04E2,3.96E2,3.87E2,6.48E2,7.36E2,5.38E2,8.56E2,5.3E1,1.06E2,2.05E2,3.88E2,1.47E2,2.1E2,5.67E2,1.72E2,3.09E2,9.56E2,2.775E3,1.398E3,2.783E3,4.176E3,1.373E3,1.387E3,4.4E1,8.65E2,1.14E2,4.23E2,5.9E2,2.161E3,8.16E2,5.86E2,3.48E2,3.42E2,1.391E3,6.89E2,1.098E3,3.08E2,2.78E2,1.107E3,6.92E2,7.06E2,7E1,1.325E3,1.286E3,5.553E3,1.397E3,1.383E3,1.39E3,2.784E3,1.396E3,1.391E3,2.98E2,2.2E1,2.3E1,6.4E1,6.6E1,2.3E1,4.4E1,2.2E1,9.42E2,2.12E2,3.26E2,2.2E1,4.91E2,2.2E1,1.86E2,2.2E1,4.7E1,2.77E2,2.595E3,2.782E3,6.29E2,7.73E2,2.2E1,2.1E1,2.09E2,6.5E2,1.87E2,1.41E2,5.75E2,4.86E2,7.02E2,1.86E2,2.58E2,1.38E2,4.61E2,1.87E2,6.18E2,1.18E2,5.76E2,2.8E2,4.3E1,1E1,4.2E1,6.4E1,5.2E1,1.53E2,8.3E1,3.05E2,3.5E1,1.12E2,5.3E1,1.57E2,1.8E1,5.49E2,8.7E1,8.5E1,2.13E2,7.43E2,1.389E3,1.386E3,1.397E3,1.386E3,1.393E3,2.783E3,5.31E2,8.56E2,7.95E2,7E1,9E1,5E2,1.066E3,1.095E3,6.07E2,2.09E2,2.3E1,5.63E2,2.97E2,4.5E1,3.47E2,3.42E2,2.1E1,1.077E3,2.32E2,4.6E1,9.45E2,1.62E2,2.78E2,4.14E2,2.61E2,4.45E2,4.7E1,2.3E1,7.42E2,5.83E2,3.26E2,9.6E2,2.487E3,3.066E3,3.22E2,1.075E3,9.69E2,4.14E2,5.81E2,8.09E2,1.397E3,1.387E3,1.28E3,1.16E2,3.93E2,9.98E2,2E1,4.4E1,4.4E1,2.2E1,2.3E1,2.1E1,8.02E2,1.4E2,2.3E1,1.89E2,2.79E2,4.7E1,2.6E2,2.31E2,4.8E1,1.38E2,2.4E1,2.3E1,6.8E1,2.09E2,2.255E3,3.4E2,1.16E3,1.622E3,1.65E2,4.4E1,3.27E2,3.23E2,1.66E2,2.1E1,7E1,7.1E1,2.34E2,3.41E2,4.18E2,6.8E1,2.3E1,2.35E2,9.2E1,4.6E1,1.36E2,3.25E2,1.38E2,4.8E2,3.67E2,2.09E2,2.1E1,2.2E1,2.1E1,2.1E1,9E0,4.3E1,1.42E2,1.1E1,2.05E2,1E2,1.1E1,1.01E2,1.8E1,3.5E1,1.8E2,3.69E2,6.6E1,2.1E1,1.252E3,1.37E2,7.14E2,6.72E2,1.041E3,3.45E2,1.403E3,1.38E3],"tree_param":{"num_deleted":"0","num_feature":"8","num_nodes":"379","size_leaf_vector":"1"}},{"base_weights":[-2.9053463E-2,5.625357E0,-1.8292301E1,-4.122021E0,2.766829E1,-2.8787873E0,-2.764265E1,-9.090211E0,2.0814137E1,2.1280197E1,5.147946E1,4.3541203E1,-1.9885107E1,-5.134652E1,-1.8894878E1,1.5960898E1,-1.336364E1,5.39118E0,5.2046577E1,1.199755E1,2.941513E1,4.147257E1,7.162419E1,5.48583E1,4.1047106E0,-6.3564938E1,-1.016421E1,-4.3955795E1,-7.357073E1,-4.0075806E1,-4.389373E0,-2.761089E1,2.0393948E1,-7.0522366E0,-1.7714766E1,-2.4839476E1,1.0093902E1,1.1968972E2,3.707052E1,2.2452858E1,-4.9468082E1,1.2232907E2,1.837695E1,6.5377785E1,1.7413641E1,1.2028315E2,5.9461422E1,-5.990476E0,6.4959755E1,1.6609211E-1,-5.95384E0,-8.6053116E1,-1.7843908E1,-3.0651665E0,-3.4765594E1,-3.7369102E1,-6.1788166E1,-5.4351566E1,-9.024475E1,-2.2927502E1,-4.3507324E1,1.6468239E1,-1.6924618E1,